t, dl, vl, al,df, vf, af,df, vf, af,df, vf, af,x0, x1, x2, u,x0, x1, x2, u,x0, x1, x2, u,J_1, J_2, J_3, J_4, J, F
0, 0.166667, 16.6667,0, -9.83333, 16.6667, 3e-08, -19.8333, 16.6667, 3e-08, -29.8333, 16.6667, 3e-08, 10, 16.6667, 3e-08, 4.90079e-07, 10, 16.6667, 3e-08, 4.90798e-07, 10, 16.6667, 3e-08, 4.91034e-07, 1.57772e-30, 0, 4.5e-16, 3.61087e-13, 3.61537e-13,0.0247355
0.01, 0.333333, 16.6667,0, -9.66667, 16.6667, 4.37024e-08, -19.6667, 16.6667, 4.37239e-08, -29.6667, 16.6667, 4.3731e-08, 10, 16.6667, 4.37024e-08, 2.60297e-07, 10, 16.6667, 4.37239e-08, 2.28845e-07, 10, 16.6667, 4.3731e-08, 2.25324e-07, 1.12387e-24, 4.49995e-20, 9.54948e-16, 8.54479e-14, 8.64029e-14,0.0145681
0.02, 0.5, 16.6667,0, -9.5, 16.6667, 5.00545e-08, -19.5, 16.6667, 4.91318e-08, -29.5, 16.6667, 4.9033e-08, 10, 16.6667, 5.00545e-08, 1.59652e-07, 10, 16.6667, 4.91318e-08, 1.00752e-07, 10, 16.6667, 4.9033e-08, 4.3077e-08, 2.23408e-23, 2.716e-19, 1.25316e-15, 1.87477e-14, 2.00012e-14,0.00936467
0.03, 0.666667, 16.6667,0, -9.33333, 16.6667, 5.31756e-08, -19.3333, 16.6667, 5.05167e-08, -29.3333, 16.6667, 4.86909e-08, 10, 16.6667, 5.31756e-08, 3.08765e-08, 10, 16.6667, 5.05167e-08, -4.15691e-09, 10, 16.6667, 4.86909e-08, -2.77833e-08, 1.37075e-22, 7.65826e-19, 1.41902e-15, 8.71274e-16, 2.29106e-15,0.00499259
0.04, 0.833333, 16.6667,0, -9.16667, 16.6667, 5.23294e-08, -19.1667, 16.6667, 4.87081e-08, -29.1667, 16.6667, 4.62344e-08, 10, 16.6667, 5.23294e-08, 5.157e-08, 10, 16.6667, 4.87081e-08, -4.91096e-09, 10, 16.6667, 4.62344e-08, 8.41e-11, 4.99027e-22, 1.56607e-18, 1.3788e-15, 1.34179e-15, 2.72216e-15,0.00493455
0.05, 1, 16.6667,0, -9, 16.6667, 5.21322e-08, -19, 16.6667, 4.69372e-08, -29, 16.6667, 4.46958e-08, 10, 16.6667, 5.21322e-08, 1.69315e-08, 10, 16.6667, 4.69372e-08, -2.16286e-08, 10, 16.6667, 4.46958e-08, -1.24959e-09, 1.3473e-21, 2.63159e-18, 1.37489e-15, 3.78018e-16, 1.75554e-15,0.00332278
0.06, 1.16667, 16.6667,0, -8.83333, 16.6667, 5.09024e-08, -18.8333, 16.6667, 4.47237e-08, -28.8333, 16.6667, 4.31684e-08, 10, 16.6667, 5.09024e-08, -1.38473e-08, 10, 16.6667, 4.47237e-08, -1.31521e-08, 10, 16.6667, 4.31684e-08, -1.0312e-08, 3.00014e-21, 3.96898e-18, 1.31582e-15, 2.35532e-16, 1.55533e-15,0.00110974
0.07, 1.33333, 16.6667,0, -8.66667, 16.6667, 4.87902e-08, -18.6667, 16.6667, 4.28384e-08, -28.6667, 16.6667, 4.14201e-08, 10, 16.6667, 4.87902e-08, -3.79553e-08, 10, 16.6667, 4.28384e-08, -1.35656e-08, 10, 16.6667, 4.14201e-08, -1.4369e-08, 5.85175e-21, 5.5416e-18, 1.20896e-15, 9.15549e-16, 2.13006e-15,0.000357931
0.08, 1.5, 16.6667,0, -8.5, 16.6667, 4.60252e-08, -18.5, 16.6667, 4.10035e-08, -28.5, 16.6667, 3.96084e-08, 10, 16.6667, 4.60252e-08, -3.57281e-08, 10, 16.6667, 4.10035e-08, -1.96572e-08, 10, 16.6667, 3.96084e-08, -1.6997e-08, 1.03558e-20, 7.29599e-18, 1.07274e-15, 9.75901e-16, 2.05595e-15,0.00040578
0.09, 1.66667, 16.6667,0, -8.33333, 16.6667, 4.34192e-08, -18.3333, 16.6667, 3.9047e-08, -28.3333, 16.6667, 3.77782e-08, 10, 16.6667, 4.34192e-08, -2.89652e-08, 10, 16.6667, 3.9047e-08, -2.85641e-08, 10, 16.6667, 3.77782e-08, -2.48771e-08, 1.70041e-20, 9.17084e-18, 9.52977e-16, 1.13688e-15, 2.09905e-15,0.000722295
0.1, 1.83333, 16.6667,0, -8.16667, 16.6667, 4.11029e-08, -18.1667, 16.6667, 3.68885e-08, -28.1667, 16.6667, 3.57726e-08, 10, 16.6667, 4.11029e-08, -3.37549e-08, 10, 16.6667, 3.68885e-08, -2.79267e-08, 10, 16.6667, 3.57726e-08, -2.51905e-08, 2.63145e-20, 1.11349e-17, 8.54229e-16, 1.27693e-15, 2.14232e-15,0.000337376
0.11, 2, 16.6667,0, -8, 16.6667, 3.87202e-08, -18, 16.6667, 3.48211e-08, -28, 16.6667, 3.38245e-08, 10, 16.6667, 3.87202e-08, -3.51672e-08, 10, 16.6667, 3.48211e-08, -3.75632e-08, 10, 16.6667, 3.38245e-08, -3.06372e-08, 3.88246e-20, 1.317e-17, 7.57725e-16, 1.79318e-15, 2.56411e-15,0.000534763
0.12, 2.16667, 16.6667,0, -7.83333, 16.6667, 3.63745e-08, -17.8333, 16.6667, 3.25335e-08, -27.8333, 16.6667, 3.17779e-08, 10, 16.6667, 3.63745e-08, -3.83737e-08, 10, 16.6667, 3.25335e-08, -3.46619e-08, 10, 16.6667, 3.17779e-08, -2.97599e-08, 5.50832e-20, 1.5243e-17, 6.69214e-16, 1.77982e-15, 2.46433e-15,0.000228343
0.13, 2.33333, 16.6667,0, -7.66667, 16.6667, 3.40108e-08, -17.6667, 16.6667, 3.04092e-08, -27.6667, 16.6667, 2.98258e-08, 10, 16.6667, 3.40108e-08, -3.26388e-08, 10, 16.6667, 3.04092e-08, -2.61632e-08, 10, 16.6667, 2.98258e-08, -2.52855e-08, 7.56394e-20, 1.73291e-17, 5.85023e-16, 1.19458e-15, 1.79701e-15,0.000283165
0.14, 2.5, 16.6667,0, -7.5, 16.6667, 3.18979e-08, -17.5, 16.6667, 2.86106e-08, -27.5, 16.6667, 2.8073e-08, 10, 16.6667, 3.18979e-08, -3.64689e-08, 10, 16.6667, 2.86106e-08, -1.60608e-08, 10, 16.6667, 2.8073e-08, -2.40913e-08, 1.01034e-19, 1.94005e-17, 5.14287e-16, 1.08416e-15, 1.61795e-15,0.000527316
0.15, 2.66667, 16.6667,0, -7.33333, 16.6667, 2.97406e-08, -17.3333, 16.6667, 2.71751e-08, -27.3333, 16.6667, 2.64145e-08, 10, 16.6667, 2.97406e-08, -4.02094e-08, 10, 16.6667, 2.71751e-08, -2.6668e-08, 10, 16.6667, 2.64145e-08, 8.36142e-10, 1.31791e-19, 2.1449e-17, 4.45832e-16, 1.16434e-15, 1.63175e-15,0.000861762
0.16, 2.83333, 16.6667,0, -7.16667, 16.6667, 2.7543e-08, -17.1667, 16.6667, 2.54692e-08, -27.1667, 16.6667, 2.55591e-08, 10, 16.6667, 2.7543e-08, -2.46382e-08, 10, 16.6667, 2.54692e-08, -2.32714e-08, 10, 16.6667, 2.55591e-08, -1.12671e-08, 1.68423e-19, 2.34494e-17, 3.81462e-16, 6.37774e-16, 1.04285e-15,0.000661235
0.17, 3, 16.6667,0, -7, 16.6667, 2.58857e-08, -17, 16.6667, 2.39221e-08, -27, 16.6667, 2.43692e-08, 10, 16.6667, 2.58857e-08, -4.21479e-08, 10, 16.6667, 2.39221e-08, -1.90943e-08, 10, 16.6667, 2.43692e-08, -2.60114e-08, 2.11407e-19, 2.53783e-17, 3.37063e-16, 1.40881e-15, 1.77147e-15,0.0012707
0.18, 3.16667, 16.6667,0, -6.83333, 16.6667, 2.37584e-08, -16.8333, 16.6667, 2.25519e-08, -26.8333, 16.6667, 2.27765e-08, 10, 16.6667, 2.37584e-08, -2.29105e-08, 10, 16.6667, 2.25519e-08, -2.85047e-08, 10, 16.6667, 2.27765e-08, -3.15243e-08, 2.61203e-19, 2.72602e-17, 2.82985e-16, 1.1656e-15, 1.4761e-15,0.000340157
0.19, 3.33333, 16.6667,0, -6.66667, 16.6667, 2.22792e-08, -16.6667, 16.6667, 2.0945e-08, -26.6667, 16.6667, 2.10716e-08, 10, 16.6667, 2.22792e-08, -2.21715e-08, 10, 16.6667, 2.0945e-08, -1.28907e-08, 10, 16.6667, 2.10716e-08, -1.44693e-08, 3.18243e-19, 2.90435e-17, 2.49079e-16, 4.33551e-16, 7.11992e-16,0.000314362
0.2, 3.5, 16.6667,0, -6.5, 16.6667, 2.08714e-08, -16.5, 16.6667, 1.98601e-08, -26.5, 16.6667, 1.99351e-08, 10, 16.6667, 2.08714e-08, -2.69361e-08, 10, 16.6667, 1.98601e-08, -2.18856e-08, 10, 16.6667, 1.99351e-08, -1.4228e-08, 3.82923e-19, 3.07685e-17, 2.18322e-16, 7.03485e-16, 9.52958e-16,0.000827685
0.21, 3.66667, 16.6667,0, -6.33333, 16.6667, 1.93676e-08, -16.3333, 16.6667, 1.85415e-08, -26.3333, 16.6667, 1.88438e-08, 10, 16.6667, 1.93676e-08, -3.11398e-08, 10, 16.6667, 1.85415e-08, -3.69424e-08, 10, 16.6667, 1.88438e-08, -2.07886e-08, 4.55645e-19, 3.24283e-17, 1.87939e-16, 1.38329e-15, 1.60412e-15,0.0012923
0.22, 3.83333, 16.6667,0, -6.16667, 16.6667, 1.77878e-08, -16.1667, 16.6667, 1.68152e-08, -26.1667, 16.6667, 1.7592e-08, 10, 16.6667, 1.77878e-08, -3.50609e-08, 10, 16.6667, 1.68152e-08, -2.99666e-08, 10, 16.6667, 1.7592e-08, -5.73904e-08, 5.36767e-19, 3.40064e-17, 1.58978e-16, 2.71046e-15, 2.90399e-15,0.000589999
0.23, 4, 16.6667,0, -6, 16.6667, 1.61431e-08, -16, 16.6667, 1.53557e-08, -26, 16.6667, 1.52839e-08, 10, 16.6667, 1.61431e-08, -3.74216e-08, 10, 16.6667, 1.53557e-08, -2.50733e-08, 10, 16.6667, 1.52839e-08, -4.37903e-08, 6.2661e-19, 3.54896e-17, 1.30612e-16, 1.97332e-15, 2.14005e-15,0.000488691
0.24, 4.16667, 16.6667,0, -5.83333, 16.6667, 1.44823e-08, -15.8333, 16.6667, 1.40917e-08, -25.8333, 16.6667, 1.34607e-08, 10, 16.6667, 1.44823e-08, -3.55338e-08, 10, 16.6667, 1.40917e-08, -1.93407e-08, 10, 16.6667, 1.34607e-08, -2.75854e-08, 7.25442e-19, 3.68637e-17, 1.05144e-16, 1.19883e-15, 1.34157e-15,0.000549334
0.25, 4.33333, 16.6667,0, -5.66667, 16.6667, 1.29336e-08, -15.6667, 16.6667, 1.30417e-08, -25.6667, 16.6667, 1.21844e-08, 10, 16.6667, 1.29336e-08, -3.49505e-08, 10, 16.6667, 1.30417e-08, -3.74467e-08, 10, 16.6667, 1.21844e-08, -2.77175e-08, 8.3349e-19, 3.81174e-17, 8.40117e-17, 1.69603e-15, 1.81899e-15,0.000462081
0.26, 4.5, 16.6667,0, -5.5, 16.6667, 1.14539e-08, -15.5, 16.6667, 1.14836e-08, -25.5, 16.6667, 1.09468e-08, 10, 16.6667, 1.14539e-08, -3.88481e-08, 10, 16.6667, 1.14836e-08, -3.14089e-08, 10, 16.6667, 1.09468e-08, -2.90598e-08, 9.5092e-19, 3.92523e-17, 6.57407e-17, 1.67008e-15, 1.77603e-15,0.000294582
0.27, 4.66667, 16.6667,0, -5.33333, 16.6667, 9.90668e-09, -15.3333, 16.6667, 1.01585e-08, -25.3333, 16.6667, 9.71008e-09, 10, 16.6667, 9.90668e-09, -4.20025e-08, 10, 16.6667, 1.01585e-08, -2.81697e-08, 10, 16.6667, 9.71008e-09, -3.04044e-08, 1.07787e-18, 4.02715e-17, 4.92034e-17, 1.74108e-15, 1.83164e-15,0.000311178
0.28, 4.83333, 16.6667,0, -5.16667, 16.6667, 8.31638e-09, -15.1667, 16.6667, 8.97484e-09, -25.1667, 16.6667, 8.47428e-09, 10, 16.6667, 8.31638e-09, -2.70581e-08, 10, 16.6667, 8.97484e-09, -1.45928e-08, 10, 16.6667, 8.47428e-09, -2.06878e-08, 1.21444e-18, 4.1162e-17, 3.49231e-17, 6.86538e-16, 7.63838e-16,0.000265271
0.29, 5, 16.6667,0, -5, 16.6667, 7.22743e-09, -15, 16.6667, 8.23789e-09, -25, 16.6667, 7.57117e-09, 10, 16.6667, 7.22743e-09, -2.34488e-08, 10, 16.6667, 8.23789e-09, -3.24375e-08, 10, 16.6667, 7.57117e-09, -4.0172e-08, 1.36064e-18, 4.19146e-17, 2.68506e-17, 1.60791e-15, 1.67804e-15,0.000764269
0.3, 5.16667, 16.6667,0, -4.83333, 16.6667, 6.28305e-09, -14.8333, 16.6667, 6.99017e-09, -24.8333, 16.6667, 6.11364e-09, 10, 16.6667, 6.28305e-09, -2.39314e-08, 10, 16.6667, 6.99017e-09, -4.56955e-08, 10, 16.6667, 6.11364e-09, -3.31397e-08, 1.51649e-18, 4.25719e-17, 2.03725e-17, 1.87952e-15, 1.94398e-15,0.00153155
0.31, 5.33333, 16.6667,0, -4.66667, 16.6667, 5.35567e-09, -14.6667, 16.6667, 5.3863e-09, -24.6667, 16.6667, 4.91566e-09, 10, 16.6667, 5.35567e-09, -1.3195e-08, 10, 16.6667, 5.3863e-09, -3.37319e-08, 10, 16.6667, 4.91566e-09, -2.43177e-08, 1.68201e-18, 4.31492e-17, 1.44528e-17, 9.5165e-16, 1.01093e-15,0.00161297
0.32, 5.5, 16.6667,0, -4.5, 16.6667, 4.7813e-09, -14.5, 16.6667, 4.1948e-09, -24.5, 16.6667, 4.02227e-09, 10, 16.6667, 4.7813e-09, -1.29157e-08, 10, 16.6667, 4.1948e-09, -3.30727e-08, 10, 16.6667, 4.02227e-09, -1.98763e-08, 1.85723e-18, 4.36477e-17, 1.16173e-17, 8.27844e-16, 8.84966e-16,0.00210359
0.33, 5.66667, 16.6667,0, -4.33333, 16.6667, 4.23445e-09, -14.3333, 16.6667, 3.06279e-09, -24.3333, 16.6667, 3.2919e-09, 10, 16.6667, 4.23445e-09, -1.42531e-08, 10, 16.6667, 3.06279e-09, -4.40377e-08, 10, 16.6667, 3.2919e-09, -2.657e-08, 2.04215e-18, 4.40985e-17, 9.67793e-18, 1.42422e-15, 1.48003e-15,0.0020583
0.34, 5.83333, 16.6667,0, -4.16667, 16.6667, 3.66571e-09, -14.1667, 16.6667, 1.63956e-09, -24.1667, 16.6667, 2.38508e-09, 10, 16.6667, 3.66571e-09, 1.02001e-08, 10, 16.6667, 1.63956e-09, -4.39854e-08, 10, 16.6667, 2.38508e-09, -4.04304e-08, 2.2368e-18, 4.45031e-17, 9.04924e-18, 1.83669e-15, 1.89248e-15,0.00291454
0.35, 6, 16.6667,0, -4, 16.6667, 3.84952e-09, -14, 16.6667, 2.6535e-10, -24, 16.6667, 1.09266e-09, 10, 16.6667, 3.84952e-09, 7.97999e-09, 10, 16.6667, 2.6535e-10, -2.95438e-08, 10, 16.6667, 1.09266e-09, -3.53538e-08, 2.44122e-18, 4.48606e-17, 1.41748e-17, 1.09321e-15, 1.15468e-15,0.00244548
0.36, 6.16667, 16.6667,0, -3.83333, 16.6667, 3.9606e-09, -13.8333, 16.6667, -6.2981e-10, -23.8333, 16.6667, -4.37616e-12, 10, 16.6667, 3.9606e-09, -9.32668e-09, 10, 16.6667, -6.2981e-10, -2.65241e-08, 10, 16.6667, -4.37616e-12, -2.99461e-08, 2.65547e-18, 4.5248e-17, 1.85747e-17, 8.43643e-16, 9.10121e-16,0.00145321
0.37, 6.33333, 16.6667,0, -3.66667, 16.6667, 3.54878e-09, -13.6667, 16.6667, -1.40454e-09, -23.6667, 16.6667, -9.02614e-10, 10, 16.6667, 3.54878e-09, -1.76146e-08, 10, 16.6667, -1.40454e-09, -1.93618e-08, 10, 16.6667, -9.02614e-10, -2.05626e-08, 2.87973e-18, 4.56567e-17, 1.86906e-17, 5.53987e-16, 6.21214e-16,0.00127713
0.38, 6.5, 16.6667,0, -3.5, 16.6667, 2.90205e-09, -13.5, 16.6667, -1.93858e-09, -23.5, 16.6667, -1.48941e-09, 10, 16.6667, 2.90205e-09, -1.79372e-09, 10, 16.6667, -1.93858e-09, -1.79993e-08, 10, 16.6667, -1.48941e-09, -2.26925e-08, 3.11411e-18, 4.60329e-17, 1.60277e-17, 4.21071e-16, 4.86246e-16,0.00157146
0.39, 6.66667, 16.6667,0, -3.33333, 16.6667, 2.75151e-09, -13.3333, 16.6667, -2.41394e-09, -23.3333, 16.6667, -2.12053e-09, 10, 16.6667, 2.75151e-09, -1.75277e-08, 10, 16.6667, -2.41394e-09, -1.74234e-08, 10, 16.6667, -2.12053e-09, -2.24514e-08, 3.35857e-18, 4.63499e-17, 1.71693e-17, 5.57429e-16, 6.24307e-16,0.00065048
0.4, 6.83333, 16.6667,0, -3.16667, 16.6667, 2.13396e-09, -13.1667, 16.6667, -2.85617e-09, -23.1667, 16.6667, -2.72339e-09, 10, 16.6667, 2.13396e-09, -5.96053e-09, 10, 16.6667, -2.85617e-09, -2.71599e-08, 10, 16.6667, -2.72339e-09, -2.49425e-08, 3.61313e-18, 4.66588e-17, 1.47364e-17, 6.97658e-16, 7.62667e-16,0.00172023
0.41, 7, 16.6667,0, -3, 16.6667, 1.88401e-09, -13, 16.6667, -3.57576e-09, -23, 16.6667, -3.38089e-09, 10, 16.6667, 1.88401e-09, -8.51258e-09, 10, 16.6667, -3.57576e-09, -1.52847e-08, 10, 16.6667, -3.38089e-09, 1.01838e-08, 3.87777e-18, 4.69102e-17, 1.66983e-17, 2.04898e-16, 2.72385e-16,0.00151744
0.42, 7.16667, 16.6667,0, -2.83333, 16.6667, 1.56583e-09, -12.8333, 16.6667, -3.91511e-09, -22.8333, 16.6667, -2.96268e-09, 10, 16.6667, 1.56583e-09, -2.20897e-08, 10, 16.6667, -3.91511e-09, -1.06383e-08, 10, 16.6667, -2.96268e-09, 8.98868e-09, 4.15246e-18, 4.7145e-17, 1.66999e-17, 3.40963e-16, 4.0896e-16,0.000846386
0.43, 7.33333, 16.6667,0, -2.66667, 16.6667, 8.50947e-10, -12.6667, 16.6667, -4.10376e-09, -22.6667, 16.6667, -2.59426e-09, 10, 16.6667, 8.50947e-10, -1.96487e-08, 10, 16.6667, -4.10376e-09, -9.54849e-09, 10, 16.6667, -2.59426e-09, -5.34549e-10, 4.43718e-18, 4.73514e-17, 1.37759e-17, 2.38766e-16, 3.0433e-16,0.000432499
0.44, 7.5, 16.6667,0, -2.5, 16.6667, 2.3312e-10, -12.5, 16.6667, -4.25342e-09, -22.5, 16.6667, -2.52382e-09, 10, 16.6667, 2.3312e-10, -2.29586e-08, 10, 16.6667, -4.25342e-09, -1.70799e-08, 10, 16.6667, -2.52382e-09, 3.57413e-09, 4.73184e-18, 4.74852e-17, 1.15875e-17, 4.15797e-16, 4.79602e-16,0.000851646
0.45, 7.66667, 16.6667,0, -2.33333, 16.6667, -4.63408e-10, -12.3333, 16.6667, -4.62404e-09, -22.3333, 16.6667, -2.33247e-09, 10, 16.6667, -4.63408e-10, -2.35671e-08, 10, 16.6667, -4.62404e-09, -2.80939e-08, 10, 16.6667, -2.33247e-09, -7.04267e-09, 5.03627e-18, 4.75563e-17, 1.13884e-17, 6.97139e-16, 7.6112e-16,0.00128393
0.46, 7.83333, 16.6667,0, -2.16667, 16.6667, -1.15497e-09, -12.1667, 16.6667, -5.31272e-09, -22.1667, 16.6667, -2.466e-09, 10, 16.6667, -1.15497e-09, -2.41869e-08, 10, 16.6667, -5.31272e-09, -1.87919e-08, 10, 16.6667, -2.466e-09, -1.11499e-08, 5.35026e-18, 4.75578e-17, 1.33623e-17, 5.3123e-16, 5.975e-16,0.000345958
0.47, 8, 16.6667,0, -2, 16.6667, -1.84208e-09, -12, 16.6667, -5.69939e-09, -22, 16.6667, -2.7183e-09, 10, 16.6667, -1.84208e-09, -3.3138e-08, 10, 16.6667, -5.69939e-09, -1.73466e-08, 10, 16.6667, -2.7183e-09, -2.57006e-08, 5.67359e-18, 4.74943e-17, 1.35795e-17, 1.02978e-15, 1.09653e-15,0.000177725
0.48, 8.16667, 16.6667,0, -1.83333, 16.6667, -2.77482e-09, -11.8333, 16.6667, -6.02981e-09, -21.8333, 16.6667, -3.39871e-09, 10, 16.6667, -2.77482e-09, -3.6044e-08, 10, 16.6667, -6.02981e-09, -1.93202e-08, 10, 16.6667, -3.39871e-09, -2.7806e-08, 6.006e-18, 4.73632e-17, 1.26086e-17, 1.22281e-15, 1.28879e-15,0.000231413
0.49, 8.33333, 16.6667,0, -1.66667, 16.6667, -3.76365e-09, -11.6667, 16.6667, -6.40842e-09, -21.6667, 16.6667, -4.1196e-09, 10, 16.6667, -3.76365e-09, -3.50162e-08, 10, 16.6667, -6.40842e-09, -1.13469e-08, 10, 16.6667, -4.1196e-09, -2.18834e-08, 6.34717e-18, 4.71373e-17, 1.31993e-17, 9.16883e-16, 9.83567e-16,0.000791606
0.5, 8.5, 16.6667,0, -1.5, 16.6667, -4.68868e-09, -11.5, 16.6667, -6.53521e-09, -21.5, 16.6667, -4.63878e-09, 10, 16.6667, -4.68868e-09, -2.8958e-08, 10, 16.6667, -6.53521e-09, -3.32606e-08, 10, 16.6667, -4.63878e-09, -2.44823e-08, 6.69667e-18, 4.68108e-17, 1.44949e-17, 1.27211e-15, 1.34011e-15,0.000813679
0.51, 8.66667, 16.6667,0, -1.33333, 16.6667, -5.40113e-09, -11.3333, 16.6667, -7.31519e-09, -21.3333, 16.6667, -5.21862e-09, 10, 16.6667, -5.40113e-09, -2.21594e-08, 10, 16.6667, -7.31519e-09, -3.10539e-08, 10, 16.6667, -5.21862e-09, -2.59469e-08, 7.05404e-18, 4.63877e-17, 1.86157e-17, 1.06431e-15, 1.13637e-15,0.000862014
0.52, 8.83333, 16.6667,0, -1.16667, 16.6667, -5.88587e-09, -11.1667, 16.6667, -8.00297e-09, -21.1667, 16.6667, -5.82307e-09, 10, 16.6667, -5.88587e-09, -2.07652e-08, 10, 16.6667, -8.00297e-09, -2.98881e-08, 10, 16.6667, -5.82307e-09, -2.11894e-08, 7.41885e-18, 4.5901e-17, 2.19388e-17, 8.86742e-16, 9.62001e-16,0.000926763
0.53, 9, 16.6667,0, -1, 16.6667, -6.31263e-09, -11, 16.6667, -8.63285e-09, -21, 16.6667, -6.26465e-09, 10, 16.6667, -6.31263e-09, -8.17838e-09, 10, 16.6667, -8.63285e-09, -2.78516e-08, 10, 16.6667, -6.26465e-09, -1.87947e-08, 7.79073e-18, 4.53752e-17, 2.54205e-17, 5.97919e-16, 6.76505e-16,0.00134727
0.54, 9.16667, 16.6667,0, -0.833333, 16.6667, -6.34756e-09, -10.8333, 16.6667, -9.18063e-09, -20.8333, 16.6667, -6.61967e-09, 10, 16.6667, -6.34756e-09, -4.2547e-09, 10, 16.6667, -9.18063e-09, -3.06051e-08, 10, 16.6667, -6.61967e-09, -3.14886e-08, 8.16934e-18, 4.4817e-17, 2.74382e-17, 9.73153e-16, 1.05358e-15,0.00160124
0.55, 9.33333, 16.6667,0, -0.666667, 16.6667, -6.26362e-09, -10.6667, 16.6667, -9.79276e-09, -20.6667, 16.6667, -7.34367e-09, 10, 16.6667, -6.26362e-09, -1.43821e-08, 10, 16.6667, -9.79276e-09, -2.90181e-08, 10, 16.6667, -7.34367e-09, -9.80132e-09, 8.55446e-18, 4.42681e-17, 2.88429e-17, 5.7248e-16, 6.54145e-16,0.00114456
0.56, 9.5, 16.6667,0, -0.5, 16.6667, -6.48629e-09, -10.5, 16.6667, -1.03369e-08, -20.5, 16.6667, -7.39292e-09, 10, 16.6667, -6.48629e-09, -1.33499e-08, 10, 16.6667, -1.03369e-08, -2.02139e-08, 10, 16.6667, -7.39292e-09, -3.37124e-08, 8.94593e-18, 4.37426e-17, 3.2783e-17, 8.61672e-16, 9.47144e-16,0.000895786
0.57, 9.66667, 16.6667,0, -0.333333, 16.6667, -6.67058e-09, -10.3333, 16.6667, -1.05987e-08, -20.3333, 16.6667, -8.15786e-09, 10, 16.6667, -6.67058e-09, -1.86089e-08, 10, 16.6667, -1.05987e-08, -3.58943e-08, 10, 16.6667, -8.15786e-09, -5.28032e-09, 9.3436e-18, 4.32082e-17, 3.29424e-17, 8.31286e-16, 9.1678e-16,0.00152357
0.58, 9.83333, 16.6667,0, -0.166667, 16.6667, -7.0065e-09, -10.1667, 16.6667, -1.13223e-08, -20.1667, 16.6667, -8.04435e-09, 10, 16.6667, -7.0065e-09, -1.30839e-08, 10, 16.6667, -1.13223e-08, -3.56549e-08, 10, 16.6667, -8.04435e-09, -7.26452e-09, 9.74722e-18, 4.26638e-17, 3.92309e-17, 7.47617e-16, 8.39258e-16,0.00192889
0.59, 10, 16.6667,0, 4.48493e-09, 16.6667, -7.16546e-09, -10, 16.6667, -1.20145e-08, -20, 16.6667, -7.99414e-09, 10, 16.6667, -7.16546e-09, -1.33005e-08, 10, 16.6667, -1.20145e-08, -3.15593e-08, 10, 16.6667, -7.99414e-09, -1.90197e-08, 1.01565e-17, 4.21037e-17, 4.55103e-17, 7.67321e-16, 8.65091e-16,0.00128568
0.6, 10.1667, 16.6667,0, 0.166667, 16.6667, -7.32563e-09, -9.83333, 16.6667, -1.25608e-08, -19.8333, 16.6667, -8.29825e-09, 10, 16.6667, -7.32563e-09, -1.20781e-08, 10, 16.6667, -1.25608e-08, -2.84075e-08, 10, 16.6667, -8.29825e-09, -3.52155e-08, 1.05713e-17, 4.15479e-17, 4.96206e-17, 1.0965e-15, 1.19824e-15,0.00119736
0.61, 10.3333, 16.6667,0, 0.333333, 16.6667, -7.44378e-09, -9.66667, 16.6667, -1.29943e-08, -19.6667, 16.6667, -9.07811e-09, 10, 16.6667, -7.44378e-09, -1.53337e-08, 10, 16.6667, -1.29943e-08, -2.48299e-08, 10, 16.6667, -9.07811e-09, -1.74915e-08, 1.09912e-17, 4.09944e-17, 5.07777e-17, 5.788e-16, 6.81563e-16,0.0010962
0.62, 10.5, 16.6667,0, 0.5, 16.6667, -7.65567e-09, -9.5, 16.6667, -1.33061e-08, -19.5, 16.6667, -9.30025e-09, 10, 16.6667, -7.65567e-09, -2.25347e-08, 10, 16.6667, -1.33061e-08, -1.81119e-08, 10, 16.6667, -9.30025e-09, -1.68134e-08, 1.14161e-17, 4.04448e-17, 5.32916e-17, 5.59272e-16, 6.64424e-16,0.000201813
0.63, 10.6667, 16.6667,0, 0.666667, 16.6667, -8.07652e-09, -9.33333, 16.6667, -1.34059e-08, -19.3333, 16.6667, -9.49465e-09, 10, 16.6667, -8.07652e-09, -2.34472e-08, 10, 16.6667, -1.34059e-08, -9.03877e-09, 10, 16.6667, -9.49465e-09, -1.4312e-08, 1.18458e-17, 3.98888e-17, 5.44653e-17, 4.18153e-16, 5.24353e-16,0.000155198
0.64, 10.8333, 16.6667,0, 0.833333, 16.6667, -8.51072e-09, -9.16667, 16.6667, -1.32302e-08, -19.1667, 16.6667, -9.60752e-09, 10, 16.6667, -8.51072e-09, -2.08779e-08, 10, 16.6667, -1.32302e-08, -9.65362e-09, 10, 16.6667, -9.60752e-09, -1.79045e-08, 1.22799e-17, 3.93007e-17, 5.39149e-17, 4.24826e-16, 5.30322e-16,0.000218489
0.65, 11, 16.6667,0, 1, 16.6667, -8.85337e-09, -9, 16.6667, -1.30788e-08, -19, 16.6667, -9.8244e-09, 10, 16.6667, -8.85337e-09, -2.60836e-08, 10, 16.6667, -1.30788e-08, -1.42658e-08, 10, 16.6667, -9.8244e-09, -2.09439e-08, 1.27181e-17, 3.86733e-17, 5.34138e-17, 6.61256e-16, 7.66061e-16,7.61164e-05
0.66, 11.1667, 16.6667,0, 1.16667, 16.6667, -9.34076e-09, -8.83333, 16.6667, -1.30708e-08, -18.8333, 16.6667, -1.01252e-08, 10, 16.6667, -9.34076e-09, -2.7107e-08, 10, 16.6667, -1.30708e-08, -1.87096e-08, 10, 16.6667, -1.01252e-08, -1.97279e-08, 1.31598e-17, 3.80159e-17, 5.49198e-17, 7.37015e-16, 8.43111e-16,0.000179303
0.67, 11.3333, 16.6667,0, 1.33333, 16.6667, -9.84261e-09, -8.66667, 16.6667, -1.31964e-08, -18.6667, 16.6667, -1.03796e-08, 10, 16.6667, -9.84261e-09, -3.36264e-08, 10, 16.6667, -1.31964e-08, -1.88615e-08, 10, 16.6667, -1.03796e-08, -2.28012e-08, 1.36047e-17, 3.73169e-17, 5.80299e-17, 1.00319e-15, 1.11214e-15,0.00037052
0.68, 11.5, 16.6667,0, 1.5, 16.6667, -1.05233e-08, -8.5, 16.6667, -1.33224e-08, -18.5, 16.6667, -1.07176e-08, 10, 16.6667, -1.05233e-08, -6.90954e-09, 10, 16.6667, -1.33224e-08, -1.60079e-08, 10, 16.6667, -1.07176e-08, -2.31866e-08, 1.40524e-17, 3.65789e-17, 6.26799e-17, 4.20807e-16, 5.34118e-16,0.000949591
0.69, 11.6667, 16.6667,0, 1.66667, 16.6667, -1.03798e-08, -8.33333, 16.6667, -1.33585e-08, -18.3333, 16.6667, -1.1056e-08, 10, 16.6667, -1.03798e-08, -4.60912e-08, 10, 16.6667, -1.33585e-08, -1.09976e-08, 10, 16.6667, -1.1056e-08, -2.04834e-08, 1.45021e-17, 3.5784e-17, 6.09577e-17, 1.33246e-15, 1.4437e-15,0.00128832
0.7, 11.8333, 16.6667,0, 1.83333, 16.6667, -1.14166e-08, -8.16667, 16.6667, -1.32432e-08, -18.1667, 16.6667, -1.13019e-08, 10, 16.6667, -1.14166e-08, -5.71643e-08, 10, 16.6667, -1.32432e-08, -8.99014e-09, 10, 16.6667, -1.13019e-08, -2.02928e-08, 1.49536e-17, 3.50152e-17, 6.87215e-17, 1.88019e-15, 1.99888e-15,0.00217618
0.71, 12, 16.6667,0, 2, 16.6667, -1.27509e-08, -8, 16.6667, -1.30714e-08, -18, 16.6667, -1.1534e-08, 10, 16.6667, -1.27509e-08, -1.57107e-08, 10, 16.6667, -1.30714e-08, 6.1636e-10, 10, 16.6667, -1.1534e-08, -9.42472e-09, 1.54063e-17, 3.41493e-17, 8.25266e-17, 1.68015e-16, 3.00098e-16,0.000555022
0.72, 12.1667, 16.6667,0, 2.16667, 16.6667, -1.27972e-08, -7.83333, 16.6667, -1.26172e-08, -17.8333, 16.6667, -1.14323e-08, 10, 16.6667, -1.27972e-08, 2.18079e-09, 10, 16.6667, -1.26172e-08, 2.18938e-08, 10, 16.6667, -1.14323e-08, -5.02115e-09, 1.58593e-17, 3.31581e-17, 8.26029e-17, 2.54653e-16, 3.86274e-16,0.00105852
0.73, 12.3333, 16.6667,0, 2.33333, 16.6667, -1.23052e-08, -7.66667, 16.6667, -1.15399e-08, -17.6667, 16.6667, -1.12018e-08, 10, 16.6667, -1.23052e-08, 5.45747e-11, 10, 16.6667, -1.15399e-08, 2.3697e-08, 10, 16.6667, -1.12018e-08, -6.95231e-09, 1.63118e-17, 3.21668e-17, 7.60595e-17, 3.04943e-16, 4.29481e-16,0.00110188
0.74, 12.5, 16.6667,0, 2.5, 16.6667, -1.18934e-08, -7.5, 16.6667, -1.04443e-08, -17.5, 16.6667, -1.1037e-08, 10, 16.6667, -1.18934e-08, -1.18177e-08, 10, 16.6667, -1.04443e-08, 1.32168e-08, 10, 16.6667, -1.1037e-08, -9.0969e-09, 1.67635e-17, 3.12116e-17, 7.19525e-17, 1.98548e-16, 3.18476e-16,0.000742943
0.75, 12.6667, 16.6667,0, 2.66667, 16.6667, -1.18515e-08, -7.33333, 16.6667, -9.69963e-09, -17.3333, 16.6667, -1.0942e-08, 10, 16.6667, -1.18515e-08, -2.00153e-08, 10, 16.6667, -9.69963e-09, 2.63928e-10, 10, 16.6667, -1.0942e-08, -5.29856e-09, 1.72145e-17, 3.02819e-17, 7.33162e-17, 2.14378e-16, 3.35191e-16,0.000131505
0.76, 12.8333, 16.6667,0, 2.83333, 16.6667, -1.20569e-08, -7.16667, 16.6667, -9.36839e-09, -17.1667, 16.6667, -1.07362e-08, 10, 16.6667, -1.20569e-08, -2.40835e-08, 10, 16.6667, -9.36839e-09, -8.72529e-09, 10, 16.6667, -1.07362e-08, -2.91207e-08, 1.76645e-17, 2.9351e-17, 7.72342e-17, 7.5208e-16, 8.76329e-16,0.00127845
0.77, 13, 16.6667,0, 3, 16.6667, -1.23775e-08, -7, 16.6667, -9.31787e-09, -17, 16.6667, -1.1252e-08, 10, 16.6667, -1.23775e-08, -2.99807e-08, 10, 16.6667, -9.31787e-09, -1.77688e-08, 10, 16.6667, -1.1252e-08, -2.00568e-08, 1.81131e-17, 2.84082e-17, 8.31527e-17, 8.08423e-16, 9.38096e-16,0.000571057
0.78, 13.1667, 16.6667,0, 3.16667, 16.6667, -1.28644e-08, -6.83333, 16.6667, -9.54034e-09, -16.8333, 16.6667, -1.14786e-08, 10, 16.6667, -1.28644e-08, -2.88516e-08, 10, 16.6667, -9.54034e-09, -6.44772e-09, 10, 16.6667, -1.14786e-08, -6.37831e-09, 1.85598e-17, 2.74472e-17, 9.01489e-17, 4.57336e-16, 5.93491e-16,0.000943251
0.79, 13.3333, 16.6667,0, 3.33333, 16.6667, -1.33011e-08, -6.66667, 16.6667, -9.41576e-09, -16.6667, 16.6667, -1.12873e-08, 10, 16.6667, -1.33011e-08, -2.35377e-08, 10, 16.6667, -9.41576e-09, -7.17808e-09, 10, 16.6667, -1.12873e-08, 7.43275e-09, 1.90042e-17, 2.64635e-17, 9.77589e-17, 3.30396e-16, 4.73622e-16,0.000528755
0.8, 13.5, 16.6667,0, 3.5, 16.6667, -1.35639e-08, -6.5, 16.6667, -9.31725e-09, -16.5, 16.6667, -1.06881e-08, 10, 16.6667, -1.35639e-08, -2.58829e-08, 10, 16.6667, -9.31725e-09, -2.24497e-09, 10, 16.6667, -1.06881e-08, 4.2445e-09, 1.94455e-17, 2.54575e-17, 1.01946e-16, 3.4649e-16, 4.93339e-16,0.000650192
0.81, 13.6667, 16.6667,0, 3.66667, 16.6667, -1.38882e-08, -6.33333, 16.6667, -9.07402e-09, -16.3333, 16.6667, -1.02045e-08, 10, 16.6667, -1.38882e-08, -7.38099e-09, 10, 16.6667, -9.07402e-09, -7.97565e-09, 10, 16.6667, -1.02045e-08, 8.75403e-10, 1.98833e-17, 2.44494e-17, 1.08668e-16, 5.94282e-17, 2.12429e-16,0.000565291
0.82, 13.8333, 16.6667,0, 3.83333, 16.6667, -1.36467e-08, -6.16667, 16.6667, -9.01082e-09, -16.1667, 16.6667, -9.8381e-09, 10, 16.6667, -1.36467e-08, -2.14139e-08, 10, 16.6667, -9.01082e-09, 1.47358e-08, 10, 16.6667, -9.8381e-09, 1.342e-08, 2.0317e-17, 2.34311e-17, 1.04204e-16, 4.27898e-16, 5.7585e-16,0.000708952
0.83, 14, 16.6667,0, 4, 16.6667, -1.38342e-08, -6, 16.6667, -8.26839e-09, -16, 16.6667, -9.10756e-09, 10, 16.6667, -1.38342e-08, -2.12521e-08, 10, 16.6667, -8.26839e-09, 1.15743e-08, 10, 16.6667, -9.10756e-09, -4.71166e-09, 2.07463e-17, 2.2455e-17, 1.11534e-16, 3.03908e-16, 4.58644e-16,0.00117993
0.84, 14.1667, 16.6667,0, 4.16667, 16.6667, -1.40107e-08, -5.83333, 16.6667, -7.64555e-09, -15.8333, 16.6667, -8.94532e-09, 10, 16.6667, -1.40107e-08, -2.0381e-08, 10, 16.6667, -7.64555e-09, 5.31087e-09, 10, 16.6667, -8.94532e-09, -1.77116e-08, 2.11708e-17, 2.14716e-17, 1.19251e-16, 3.78646e-16, 5.4054e-16,0.0012897
0.85, 14.3333, 16.6667,0, 4.33333, 16.6667, -1.41551e-08, -5.66667, 16.6667, -7.23137e-09, -15.6667, 16.6667, -9.17849e-09, 10, 16.6667, -1.41551e-08, -1.82077e-08, 10, 16.6667, -7.23137e-09, -8.3628e-09, 10, 16.6667, -9.17849e-09, -2.02995e-08, 2.15902e-17, 2.04839e-17, 1.26047e-16, 4.06764e-16, 5.74885e-16,0.00056208
0.86, 14.5, 16.6667,0, 4.5, 16.6667, -1.42295e-08, -5.5, 16.6667, -7.24121e-09, -15.5, 16.6667, -9.48153e-09, 10, 16.6667, -1.42295e-08, -1.7089e-08, 10, 16.6667, -7.24121e-09, -2.29842e-08, 10, 16.6667, -9.48153e-09, -1.62589e-08, 2.20038e-17, 1.94991e-17, 1.28166e-16, 5.4233e-16, 7.11999e-16,0.000731948
0.87, 14.6667, 16.6667,0, 4.66667, 16.6667, -1.42678e-08, -5.33333, 16.6667, -7.68936e-09, -15.3333, 16.6667, -9.65325e-09, 10, 16.6667, -1.42678e-08, -1.51652e-08, 10, 16.6667, -7.68936e-09, -2.24953e-08, 10, 16.6667, -9.65325e-09, -5.90206e-09, 2.24112e-17, 1.85327e-17, 1.25352e-16, 3.85429e-16, 5.51725e-16,0.00117751
0.88, 14.8333, 16.6667,0, 4.83333, 16.6667, -1.42472e-08, -5.16667, 16.6667, -8.10791e-09, -15.1667, 16.6667, -9.50853e-09, 10, 16.6667, -1.42472e-08, -1.44923e-08, 10, 16.6667, -8.10791e-09, -2.45797e-08, 10, 16.6667, -9.50853e-09, -5.59276e-09, 2.28123e-17, 1.75971e-17, 1.21317e-16, 4.22732e-16, 5.84459e-16,0.00112573
0.89, 15, 16.6667,0, 5, 16.6667, -1.4207e-08, -5, 16.6667, -8.57503e-09, -15, 16.6667, -9.35937e-09, 10, 16.6667, -1.4207e-08, -1.75629e-09, 10, 16.6667, -8.57503e-09, -2.0326e-08, 10, 16.6667, -9.35937e-09, -1.00901e-08, 2.32068e-17, 1.66964e-17, 1.17087e-16, 2.5902e-16, 4.16011e-16,0.00119669
0.9, 15.1667, 16.6667,0, 5.16667, 16.6667, -1.37862e-08, -4.83333, 16.6667, -8.89898e-09, -14.8333, 16.6667, -9.35009e-09, 10, 16.6667, -1.37862e-08, -4.09668e-09, 10, 16.6667, -8.89898e-09, -9.90484e-09, 10, 16.6667, -9.35009e-09, -8.42983e-09, 2.35944e-17, 1.58315e-17, 1.07073e-16, 9.29754e-17, 2.39474e-16,0.000645671
0.91, 15.3333, 16.6667,0, 5.33333, 16.6667, -1.34495e-08, -4.66667, 16.6667, -8.89949e-09, -14.6667, 16.6667, -9.29132e-09, 10, 16.6667, -1.34495e-08, -3.30629e-09, 10, 16.6667, -8.89949e-09, -1.5635e-08, 10, 16.6667, -9.29132e-09, -1.5204e-08, 2.39751e-17, 1.50235e-17, 1.00873e-16, 2.43273e-16, 3.83145e-16,0.000929154
0.92, 15.5, 16.6667,0, 5.5, 16.6667, -1.31004e-08, -4.5, 16.6667, -9.07189e-09, -14.5, 16.6667, -9.43772e-09, 10, 16.6667, -1.31004e-08, -1.34637e-08, 10, 16.6667, -9.07189e-09, -1.0355e-08, 10, 16.6667, -9.43772e-09, -1.43786e-08, 2.4349e-17, 1.42588e-17, 9.39915e-17, 2.4762e-16, 3.8022e-16,0.000281837
0.93, 15.6667, 16.6667,0, 5.66667, 16.6667, -1.30676e-08, -4.33333, 16.6667, -9.08015e-09, -14.3333, 16.6667, -9.55449e-09, 10, 16.6667, -1.30676e-08, -1.35553e-08, 10, 16.6667, -9.08015e-09, 2.83956e-09, 10, 16.6667, -9.55449e-09, -1.07201e-08, 2.47161e-17, 1.35384e-17, 9.34439e-17, 1.53365e-16, 2.85063e-16,0.000572662
0.94, 15.8333, 16.6667,0, 5.83333, 16.6667, -1.30387e-08, -4.16667, 16.6667, -8.69229e-09, -14.1667, 16.6667, -9.55761e-09, 10, 16.6667, -1.30387e-08, -1.07976e-08, 10, 16.6667, -8.69229e-09, -3.5233e-09, 10, 16.6667, -9.55761e-09, -1.13311e-08, 2.50764e-17, 1.28384e-17, 9.48238e-17, 1.28698e-16, 2.61437e-16,0.000326834
0.95, 16, 16.6667,0, 6, 16.6667, -1.2928e-08, -4, 16.6667, -8.50824e-09, -14, 16.6667, -9.57896e-09, 10, 16.6667, -1.2928e-08, -1.52074e-08, 10, 16.6667, -8.50824e-09, -1.01925e-08, 10, 16.6667, -9.57896e-09, -1.19307e-08, 2.54297e-17, 1.21527e-17, 9.39069e-17, 2.38746e-16, 3.70236e-16,7.52872e-05
0.96, 16.1667, 16.6667,0, 6.16667, 16.6667, -1.29533e-08, -3.83333, 16.6667, -8.53041e-09, -13.8333, 16.6667, -9.61758e-09, 10, 16.6667, -1.29533e-08, -1.81158e-08, 10, 16.6667, -8.53041e-09, -8.77e-09, 10, 16.6667, -9.61758e-09, -1.4294e-08, 2.57758e-17, 1.14896e-17, 9.42657e-17, 3.04707e-16, 4.36238e-16,0.000260081
0.97, 16.3333, 16.6667,0, 6.33333, 16.6667, -1.3065e-08, -3.66667, 16.6667, -8.50916e-09, -13.6667, 16.6667, -9.72582e-09, 10, 16.6667, -1.3065e-08, -1.83089e-08, 10, 16.6667, -8.50916e-09, -7.76842e-09, 10, 16.6667, -9.72582e-09, -6.78457e-09, 2.61145e-17, 1.0844e-17, 9.64648e-17, 2.20797e-16, 3.5422e-16,0.000277106
0.98, 16.5, 16.6667,0, 6.5, 16.6667, -1.31788e-08, -3.5, 16.6667, -8.45858e-09, -13.5, 16.6667, -9.60516e-09, 10, 16.6667, -1.31788e-08, -1.5706e-08, 10, 16.6667, -8.45858e-09, -6.32291e-09, 10, 16.6667, -9.60516e-09, -1.69155e-08, 2.64456e-17, 1.02105e-17, 9.86371e-17, 2.86397e-16, 4.2169e-16,0.000436866
0.99, 16.6667, 16.6667,0, 6.66667, 16.6667, -1.32106e-08, -3.33333, 16.6667, -8.36631e-09, -13.3333, 16.6667, -9.79245e-09, 10, 16.6667, -1.32106e-08, -1.24506e-08, 10, 16.6667, -8.36631e-09, -6.46701e-09, 10, 16.6667, -9.79245e-09, -2.30724e-08, 2.67688e-17, 9.59023e-18, 1.00011e-16, 3.64588e-16, 5.00958e-16,0.000583475
1, 16.8333, 16.6667,0, 6.83333, 16.6667, -1.31438e-08, -3.16667, 16.6667, -8.28144e-09, -13.1667, 16.6667, -1.01582e-08, 10, 16.6667, -1.31438e-08, -1.84136e-08, 10, 16.6667, -8.28144e-09, -4.64058e-09, 10, 16.6667, -1.01582e-08, 1.7548e-08, 2.70838e-17, 8.98621e-18, 9.99622e-17, 3.34264e-16, 4.70296e-16,0.000771083
1.01, 17, 16.6667,0, 7, 16.6667, -1.32581e-08, -3, 16.6667, -8.14461e-09, -13, 16.6667, -9.29316e-09, 10, 16.6667, -1.32581e-08, -2.00449e-08, 10, 16.6667, -8.14461e-09, -2.56493e-09, 10, 16.6667, -9.29316e-09, 1.13751e-08, 2.73904e-17, 8.40322e-18, 1.01622e-16, 2.68885e-16, 4.063e-16,0.000530494
1.02, 17.1667, 16.6667,0, 7.16667, 16.6667, -1.34175e-08, -2.83333, 16.6667, -7.95007e-09, -12.8333, 16.6667, -8.64214e-09, 10, 16.6667, -1.34175e-08, -1.73415e-08, 10, 16.6667, -7.95007e-09, -2.83587e-09, 10, 16.6667, -8.64214e-09, 2.45752e-09, 2.76884e-17, 7.83608e-18, 1.052e-16, 1.57404e-16, 2.98129e-16,0.000370006
1.03, 17.3333, 16.6667,0, 7.33333, 16.6667, -1.34905e-08, -2.66667, 16.6667, -7.77015e-09, -12.6667, 16.6667, -8.28034e-09, 10, 16.6667, -1.34905e-08, -2.36142e-08, 10, 16.6667, -7.77015e-09, 5.69206e-09, 10, 16.6667, -8.28034e-09, -5.3954e-09, 2.79776e-17, 7.28204e-18, 1.07488e-16, 3.0957e-16, 4.52318e-16,0.00132334
1.04, 17.5, 16.6667,0, 7.5, 16.6667, -1.37492e-08, -2.5, 16.6667, -7.34038e-09, -12.5, 16.6667, -8.16619e-09, 10, 16.6667, -1.37492e-08, -2.09525e-08, 10, 16.6667, -7.34038e-09, -6.16956e-09, 10, 16.6667, -8.16619e-09, -1.20236e-08, 2.82577e-17, 6.74524e-18, 1.15398e-16, 3.10819e-16, 4.6122e-16,0.00069288
1.05, 17.6667, 16.6667,0, 7.66667, 16.6667, -1.39195e-08, -2.33333, 16.6667, -7.28079e-09, -12.3333, 16.6667, -8.25469e-09, 10, 16.6667, -1.39195e-08, -1.37149e-08, 10, 16.6667, -7.28079e-09, -8.33695e-09, 10, 16.6667, -8.25469e-09, -2.14765e-08, 2.85283e-17, 6.21565e-18, 1.19387e-16, 3.59421e-16, 5.13552e-16,0.000457416
1.06, 17.8333, 16.6667,0, 7.83333, 16.6667, -1.3867e-08, -2.16667, 16.6667, -7.2882e-09, -12.1667, 16.6667, -8.62383e-09, 10, 16.6667, -1.3867e-08, -1.85983e-08, 10, 16.6667, -7.2882e-09, -1.41904e-08, 10, 16.6667, -8.62383e-09, -2.48889e-08, 2.8789e-17, 5.7018e-18, 1.18678e-16, 5.8336e-16, 7.36529e-16,0.000472335
1.07, 18, 16.6667,0, 8, 16.6667, -1.39627e-08, -2, 16.6667, -7.47098e-09, -12, 16.6667, -9.08304e-09, 10, 16.6667, -1.39627e-08, -1.997e-08, 10, 16.6667, -7.47098e-09, 1.47584e-10, 10, 16.6667, -9.08304e-09, -1.3981e-08, 2.90396e-17, 5.2128e-18, 1.19849e-16, 2.97146e-16, 4.51247e-16,0.000929092
1.08, 18.1667, 16.6667,0, 8.16667, 16.6667, -1.40964e-08, -1.83333, 16.6667, -7.21752e-09, -11.8333, 16.6667, -9.1997e-09, 10, 16.6667, -1.40964e-08, -1.89035e-09, 10, 16.6667, -7.21752e-09, -1.51469e-08, 10, 16.6667, -9.1997e-09, 6.82993e-09, 2.92801e-17, 4.74428e-18, 1.24977e-16, 1.39825e-16, 2.98827e-16,0.000907423
1.09, 18.3333, 16.6667,0, 8.33333, 16.6667, -1.36832e-08, -1.66667, 16.6667, -7.43134e-09, -11.6667, 16.6667, -8.68815e-09, 10, 16.6667, -1.36832e-08, 7.07716e-09, 10, 16.6667, -7.43134e-09, 5.98464e-09, 10, 16.6667, -8.68815e-09, -2.65182e-08, 2.951e-17, 4.29355e-18, 1.13947e-16, 3.94558e-16, 5.42309e-16,0.00110861
1.1, 18.5, 16.6667,0, 8.5, 16.6667, -1.30148e-08, -1.5, 16.6667, -7.00409e-09, -11.5, 16.6667, -9.19409e-09, 10, 16.6667, -1.30148e-08, 1.28571e-08, 10, 16.6667, -7.00409e-09, -6.77539e-09, 10, 16.6667, -9.19409e-09, 6.96506e-10, 2.97295e-17, 3.8827e-18, 1.05154e-16, 1.05848e-16, 2.44614e-16,0.00107678
1.11, 18.6667, 16.6667,0, 8.66667, 16.6667, -1.21952e-08, -1.33333, 16.6667, -6.97388e-09, -11.3333, 16.6667, -8.86672e-09, 10, 16.6667, -1.21952e-08, 6.25641e-09, 10, 16.6667, -6.97388e-09, -4.26997e-09, 10, 16.6667, -8.86672e-09, -1.40162e-08, 2.99388e-17, 3.51084e-18, 8.97845e-17, 1.26914e-16, 2.50149e-16,0.000817474
1.12, 18.8333, 16.6667,0, 8.83333, 16.6667, -1.1601e-08, -1.16667, 16.6667, -6.86952e-09, -11.1667, 16.6667, -8.99165e-09, 10, 16.6667, -1.1601e-08, -1.33249e-09, 10, 16.6667, -6.86952e-09, 2.77057e-10, 10, 16.6667, -8.99165e-09, -1.76888e-08, 3.01385e-17, 3.18253e-18, 8.07373e-17, 1.57373e-16, 2.71432e-16,0.000862942
1.13, 19, 16.6667,0, 9, 16.6667, -1.12543e-08, -1, 16.6667, -6.63222e-09, -11, 16.6667, -9.22259e-09, 10, 16.6667, -1.12543e-08, 7.60306e-10, 10, 16.6667, -6.63222e-09, -2.18798e-08, 10, 16.6667, -9.22259e-09, -1.92468e-08, 3.0329e-17, 2.8867e-18, 7.73665e-17, 4.24871e-16, 5.35453e-16,0.00107621
1.14, 19.1667, 16.6667,0, 9.16667, 16.6667, -1.08564e-08, -0.833333, 16.6667, -7.06754e-09, -10.8333, 16.6667, -9.49258e-09, 10, 16.6667, -1.08564e-08, -4.31929e-09, 10, 16.6667, -7.06754e-09, -2.50985e-08, 10, 16.6667, -9.49258e-09, -5.78248e-09, 3.05107e-17, 2.61437e-18, 6.90481e-17, 3.41015e-16, 4.43188e-16,0.00104789
1.15, 19.3333, 16.6667,0, 9.33333, 16.6667, -1.06241e-08, -0.666667, 16.6667, -7.58491e-09, -10.6667, 16.6667, -9.34963e-09, 10, 16.6667, -1.06241e-08, -6.24202e-09, 10, 16.6667, -7.58491e-09, -1.03639e-08, 10, 16.6667, -9.34963e-09, -1.03378e-08, 3.06839e-17, 2.36677e-18, 6.26105e-17, 1.26621e-16, 2.22283e-16,0.000280813
1.16, 19.5, 16.6667,0, 9.5, 16.6667, -1.04572e-08, -0.5, 16.6667, -7.643e-09, -10.5, 16.6667, -9.34811e-09, 10, 16.6667, -1.04572e-08, 4.64474e-09, 10, 16.6667, -7.643e-09, -3.14228e-08, 10, 16.6667, -9.34811e-09, -6.3708e-09, 3.08488e-17, 2.13856e-18, 6.00898e-17, 5.24777e-16, 6.17854e-16,0.00189521
1.17, 19.6667, 16.6667,0, 9.66667, 16.6667, -9.96926e-09, -0.333333, 16.6667, -8.33092e-09, -10.3333, 16.6667, -9.22763e-09, 10, 16.6667, -9.96926e-09, 9.60724e-10, 10, 16.6667, -8.33092e-09, 2.98221e-08, 10, 16.6667, -9.22763e-09, -1.29205e-08, 3.10055e-17, 1.92618e-18, 5.14372e-17, 5.2861e-16, 6.12979e-16,0.00207439
1.18, 19.8333, 16.6667,0, 9.83333, 16.6667, -9.60813e-09, -0.166667, 16.6667, -7.15855e-09, -10.1667, 16.6667, -9.30766e-09, 10, 16.6667, -9.60813e-09, 7.49306e-09, 10, 16.6667, -7.15855e-09, 3.54506e-08, 10, 16.6667, -9.30766e-09, 9.30551e-09, 3.11544e-17, 1.73513e-18, 5.14676e-17, 6.9974e-16, 7.84097e-16,0.00127667
1.19, 20, 16.6667,0, 10, 16.6667, -9.06307e-09, 6.61404e-09, 16.6667, -5.85642e-09, -10, 16.6667, -8.71824e-09, 10, 16.6667, -9.06307e-09, 5.15564e-09, 10, 16.6667, -5.85642e-09, 2.30187e-08, 10, 16.6667, -8.71824e-09, 1.70804e-08, 3.12958e-17, 1.56038e-18, 5.03059e-17, 4.24091e-16, 5.07253e-16,0.000530212
1.2, 20.1667, 16.6667,0, 10.1667, 16.6667, -8.6063e-09, 0.166667, 16.6667, -4.97064e-09, -9.83333, 16.6667, -7.91522e-09, 10, 16.6667, -8.6063e-09, 1.97174e-08, 10, 16.6667, -4.97064e-09, 2.0695e-08, 10, 16.6667, -7.91522e-09, 2.81126e-08, 3.14297e-17, 1.40542e-18, 4.79784e-17, 8.03688e-16, 8.84502e-16,0.000850155
1.21, 20.3333, 16.6667,0, 10.3333, 16.6667, -7.7279e-09, 0.333333, 16.6667, -4.18411e-09, -9.66667, 16.6667, -6.808e-09, 10, 16.6667, -7.7279e-09, 1.96426e-08, 10, 16.6667, -4.18411e-09, 6.49726e-09, 10, 16.6667, -6.808e-09, 1.98269e-08, 3.15566e-17, 1.26823e-18, 3.95819e-17, 4.10576e-16, 4.82983e-16,0.00145224
1.22, 20.5, 16.6667,0, 10.5, 16.6667, -6.88102e-09, 0.5, 16.6667, -3.84972e-09, -9.5, 16.6667, -5.98626e-09, 10, 16.6667, -6.88102e-09, 2.839e-09, 10, 16.6667, -3.84972e-09, 7.37928e-09, 10, 16.6667, -5.98626e-09, 5.2872e-09, 3.16768e-17, 1.15362e-18, 3.05511e-17, 4.52341e-17, 1.08616e-16,0.000364737
1.23, 20.6667, 16.6667,0, 10.6667, 16.6667, -6.56649e-09, 0.666667, 16.6667, -3.50001e-09, -9.33333, 16.6667, -5.6281e-09, 10, 16.6667, -6.56649e-09, 1.78939e-08, 10, 16.6667, -3.50001e-09, -1.94911e-08, 10, 16.6667, -5.6281e-09, 1.68564e-09, 3.17911e-17, 1.0579e-18, 2.85254e-17, 3.51469e-16, 4.12843e-16,0.00219904
1.24, 20.8333, 16.6667,0, 10.8333, 16.6667, -5.81079e-09, 0.833333, 16.6667, -3.96808e-09, -9.16667, 16.6667, -5.38993e-09, 10, 16.6667, -5.81079e-09, -3.19312e-09, 10, 16.6667, -3.96808e-09, -4.90642e-08, 10, 16.6667, -5.38993e-09, -2.34932e-08, 3.18999e-17, 9.72676e-19, 1.95912e-17, 1.48471e-15, 1.53718e-15,0.00230661
1.25, 21, 16.6667,0, 11, 16.6667, -5.71289e-09, 1, 16.6667, -5.30774e-09, -9, 16.6667, -5.91506e-09, 10, 16.6667, -5.71289e-09, -2.29238e-08, 10, 16.6667, -5.30774e-09, -2.56518e-08, 10, 16.6667, -5.91506e-09, -1.71215e-10, 3.20036e-17, 8.99571e-19, 1.6585e-17, 5.91771e-16, 6.41259e-16,0.0012115
1.26, 21.1667, 16.6667,0, 11.1667, 16.6667, -6.21017e-09, 1.16667, 16.6667, -5.90037e-09, -8.83333, 16.6667, -5.72303e-09, 10, 16.6667, -6.21017e-09, -2.12529e-08, 10, 16.6667, -5.90037e-09, -2.44137e-08, 10, 16.6667, -5.72303e-09, -2.07001e-09, 3.21028e-17, 8.27374e-19, 1.93468e-17, 5.26001e-16, 5.78278e-16,0.000789342
1.27, 21.3333, 16.6667,0, 11.3333, 16.6667, -6.64075e-09, 1.33333, 16.6667, -6.4361e-09, -8.66667, 16.6667, -5.59436e-09, 10, 16.6667, -6.64075e-09, -1.52006e-08, 10, 16.6667, -6.4361e-09, -8.73161e-09, 10, 16.6667, -5.59436e-09, -1.26059e-08, 3.21975e-17, 7.51481e-19, 2.2425e-17, 2.33104e-16, 2.88478e-16,0.000412817
1.28, 21.5, 16.6667,0, 11.5, 16.6667, -6.87541e-09, 1.5, 16.6667, -6.48351e-09, -8.5, 16.6667, -5.78606e-09, 10, 16.6667, -6.87541e-09, -2.15306e-08, 10, 16.6667, -6.48351e-09, -3.07552e-08, 10, 16.6667, -5.78606e-09, -2.17011e-08, 3.22871e-17, 6.73705e-19, 2.39556e-17, 9.40193e-16, 9.9711e-16,0.000515136
1.29, 21.6667, 16.6667,0, 11.6667, 16.6667, -7.29215e-09, 1.66667, 16.6667, -7.19005e-09, -8.33333, 16.6667, -6.24423e-09, 10, 16.6667, -7.29215e-09, -2.26796e-08, 10, 16.6667, -7.19005e-09, -1.48932e-08, 10, 16.6667, -6.24423e-09, -9.96471e-10, 3.23715e-17, 5.98476e-19, 2.70402e-17, 3.68582e-16, 4.28592e-16,0.000805018
1.3, 21.8333, 16.6667,0, 11.8333, 16.6667, -7.72947e-09, 1.83333, 16.6667, -7.39718e-09, -8.16667, 16.6667, -6.06598e-09, 10, 16.6667, -7.72947e-09, -1.53355e-08, 10, 16.6667, -7.39718e-09, -1.65358e-08, 10, 16.6667, -6.06598e-09, -1.97369e-08, 3.24504e-17, 5.23012e-19, 3.08136e-17, 4.49077e-16, 5.12864e-16,0.000195632
1.31, 22, 16.6667,0, 12, 16.6667, -7.93188e-09, 2, 16.6667, -7.64668e-09, -8, 16.6667, -6.45589e-09, 10, 16.6667, -7.93188e-09, -1.46263e-08, 10, 16.6667, -7.64668e-09, -1.14823e-08, 10, 16.6667, -6.45589e-09, -9.60634e-09, 3.25234e-17, 4.49266e-19, 3.2207e-17, 2.19027e-16, 2.84207e-16,0.000391084
1.32, 22.1667, 16.6667,0, 12.1667, 16.6667, -8.10628e-09, 2.16667, 16.6667, -7.73626e-09, -7.83333, 16.6667, -6.52888e-09, 10, 16.6667, -8.10628e-09, -1.13442e-08, 10, 16.6667, -7.73626e-09, -2.04215e-08, 10, 16.6667, -6.52888e-09, 5.13983e-09, 3.25902e-17, 3.79943e-19, 3.36532e-17, 2.86074e-16, 3.52697e-16,0.00139676
1.33, 22.3333, 16.6667,0, 12.3333, 16.6667, -8.17639e-09, 2.33333, 16.6667, -8.09103e-09, -7.66667, 16.6667, -6.15706e-09, 10, 16.6667, -8.17639e-09, -6.39434e-09, 10, 16.6667, -8.09103e-09, -2.16304e-08, 10, 16.6667, -6.15706e-09, 4.51284e-11, 3.26507e-17, 3.1595e-19, 3.53005e-17, 2.54381e-16, 3.22648e-16,0.00122534
1.34, 22.5, 16.6667,0, 12.5, 16.6667, -8.09568e-09, 2.5, 16.6667, -8.47024e-09, -7.5, 16.6667, -5.95047e-09, 10, 16.6667, -8.09568e-09, -3.44543e-09, 10, 16.6667, -8.47024e-09, -1.26216e-08, 10, 16.6667, -5.95047e-09, -4.19735e-09, 3.27047e-17, 2.57351e-19, 3.60148e-17, 9.43972e-17, 1.63374e-16,0.000590021
1.35, 22.6667, 16.6667,0, 12.6667, 16.6667, -7.92918e-09, 2.66667, 16.6667, -8.56655e-09, -7.33333, 16.6667, -5.87804e-09, 10, 16.6667, -7.92918e-09, -5.80463e-09, 10, 16.6667, -8.56655e-09, 3.37573e-09, 10, 16.6667, -5.87804e-09, 1.46021e-09, 3.27523e-17, 2.05173e-19, 3.52531e-17, 2.36107e-17, 9.18213e-17,0.000380945
1.36, 22.8333, 16.6667,0, 12.8333, 16.6667, -7.83902e-09, 2.83333, 16.6667, -8.17972e-09, -7.16667, 16.6667, -5.6383e-09, 10, 16.6667, -7.83902e-09, -9.73985e-09, 10, 16.6667, -8.17972e-09, 5.14815e-09, 10, 16.6667, -5.6383e-09, -1.90255e-11, 3.27936e-17, 1.60474e-19, 3.40125e-17, 6.06842e-17, 1.27651e-16,0.000693104
1.37, 23, 16.6667,0, 13, 16.6667, -7.86991e-09, 3, 16.6667, -7.75262e-09, -7, 16.6667, -5.45093e-09, 10, 16.6667, -7.86991e-09, -9.53754e-09, 10, 16.6667, -7.75262e-09, -1.08979e-10, 10, 16.6667, -5.45093e-09, -8.06862e-09, 3.28288e-17, 1.23821e-19, 3.36235e-17, 7.80396e-17, 1.44616e-16,0.000718278
1.38, 23.1667, 16.6667,0, 13.1667, 16.6667, -7.89371e-09, 3.16667, 16.6667, -7.49747e-09, -6.83333, 16.6667, -5.51129e-09, 10, 16.6667, -7.89371e-09, -1.36147e-08, 10, 16.6667, -7.49747e-09, -1.02363e-08, 10, 16.6667, -5.51129e-09, 1.80175e-08, 3.28578e-17, 9.4739e-20, 3.32063e-17, 3.07386e-16, 3.73545e-16,0.00104035
1.39, 23.3333, 16.6667,0, 13.3333, 16.6667, -8.03902e-09, 3.33333, 16.6667, -7.55464e-09, -6.66667, 16.6667, -4.78705e-09, 10, 16.6667, -8.03902e-09, -2.86846e-09, 10, 16.6667, -7.55464e-09, -5.60651e-10, 10, 16.6667, -4.78705e-09, 1.53595e-08, 3.28804e-17, 7.26563e-20, 3.62601e-17, 1.22228e-16, 1.91442e-16,0.000348387
1.4, 23.5, 16.6667,0, 13.5, 16.6667, -7.85711e-09, 3.5, 16.6667, -7.31964e-09, -6.5, 16.6667, -4.1667e-09, 10, 16.6667, -7.85711e-09, -2.21594e-09, 10, 16.6667, -7.31964e-09, 2.8902e-09, 10, 16.6667, -4.1667e-09, 1.39801e-08, 3.28967e-17, 5.81395e-20, 3.59821e-17, 1.04354e-16, 1.73291e-16,0.000381318
1.41, 23.6667, 16.6667,0, 13.6667, 16.6667, -7.66169e-09, 3.66667, 16.6667, -6.98895e-09, -6.33333, 16.6667, -3.60841e-09, 10, 16.6667, -7.66169e-09, -5.13677e-09, 10, 16.6667, -6.98895e-09, 9.62941e-10, 10, 16.6667, -3.60841e-09, 2.66605e-10, 3.29066e-17, 5.18396e-20, 3.5291e-17, 1.36924e-17, 8.19419e-17,0.000112466
1.42, 23.8333, 16.6667,0, 13.8333, 16.6667, -7.5604e-09, 3.83333, 16.6667, -6.72709e-09, -6.16667, 16.6667, -3.48013e-09, 10, 16.6667, -7.5604e-09, -8.23978e-09, 10, 16.6667, -6.72709e-09, -3.0827e-09, 10, 16.6667, -3.48013e-09, -1.37409e-08, 3.29103e-17, 5.36065e-20, 3.41984e-17, 1.33105e-16, 2.00267e-16,0.000251108
1.43, 24, 16.6667,0, 14, 16.6667, -7.55558e-09, 4, 16.6667, -6.59534e-09, -6, 16.6667, -3.77635e-09, 10, 16.6667, -7.55558e-09, -1.12795e-08, 10, 16.6667, -6.59534e-09, 6.61861e-09, 10, 16.6667, -3.77635e-09, 1.04323e-09, 3.29079e-17, 6.25165e-20, 3.29778e-17, 8.60604e-17, 1.52009e-16,0.000709738
1.44, 24.1667, 16.6667,0, 14.1667, 16.6667, -7.64211e-09, 4.16667, 16.6667, -6.17694e-09, -5.83333, 16.6667, -3.61917e-09, 10, 16.6667, -7.64211e-09, 3.33863e-09, 10, 16.6667, -6.17694e-09, -1.37335e-08, 10, 16.6667, -3.61917e-09, -5.20445e-09, 3.28993e-17, 7.75023e-20, 3.35454e-17, 1.1342e-16, 1.79943e-16,0.00120429
1.45, 24.3333, 16.6667,0, 14.3333, 16.6667, -7.28722e-09, 4.33333, 16.6667, -6.38304e-09, -5.66667, 16.6667, -3.65467e-09, 10, 16.6667, -7.28722e-09, -9.1839e-09, 10, 16.6667, -6.38304e-09, -1.90034e-08, 10, 16.6667, -3.65467e-09, -2.82722e-08, 3.28846e-17, 9.99628e-20, 3.06825e-17, 6.22395e-16, 6.86062e-16,0.00064679
1.46, 24.5, 16.6667,0, 14.5, 16.6667, -7.31983e-09, 4.5, 16.6667, -6.74038e-09, -5.5, 16.6667, -4.38101e-09, 10, 16.6667, -7.31983e-09, -5.12223e-09, 10, 16.6667, -6.74038e-09, -2.07966e-08, 10, 16.6667, -4.38101e-09, 5.77524e-09, 3.28638e-17, 1.27029e-19, 2.97411e-17, 2.46045e-16, 3.08777e-16,0.00171848
1.47, 24.6667, 16.6667,0, 14.6667, 16.6667, -7.2295e-09, 4.66667, 16.6667, -7.13959e-09, -5.33333, 16.6667, -4.06172e-09, 10, 16.6667, -7.2295e-09, -2.29615e-09, 10, 16.6667, -7.13959e-09, -1.09868e-08, 10, 16.6667, -4.06172e-09, -2.12256e-09, 3.28372e-17, 1.58101e-19, 3.08735e-17, 6.52439e-17, 1.29113e-16,0.000825174
1.48, 24.8333, 16.6667,0, 14.8333, 16.6667, -7.0574e-09, 4.83333, 16.6667, -7.23121e-09, -5.16667, 16.6667, -3.99001e-09, 10, 16.6667, -7.0574e-09, -1.52051e-08, 10, 16.6667, -7.23121e-09, -3.07276e-09, 10, 16.6667, -3.99001e-09, -1.08186e-08, 3.28047e-17, 1.9583e-19, 3.01712e-17, 1.78839e-16, 2.42011e-16,0.000706855
1.49, 25, 16.6667,0, 15, 16.6667, -7.27831e-09, 5, 16.6667, -7.08235e-09, -5, 16.6667, -4.18156e-09, 10, 16.6667, -7.27831e-09, -9.10591e-09, 10, 16.6667, -7.08235e-09, 1.11607e-08, 10, 16.6667, -4.18156e-09, -1.7056e-09, 3.27667e-17, 2.38752e-19, 3.07134e-17, 1.05194e-16, 1.68913e-16,0.000938137
1.5, 25.1667, 16.6667,0, 15.1667, 16.6667, -7.30887e-09, 5.16667, 16.6667, -6.51145e-09, -4.83333, 16.6667, -4.09335e-09, 10, 16.6667, -7.30887e-09, -4.78091e-09, 10, 16.6667, -6.51145e-09, 1.18858e-08, 10, 16.6667, -4.09335e-09, -2.01189e-08, 3.2723e-17, 2.88594e-19, 2.99514e-17, 2.8445e-16, 3.47413e-16,0.00145447
1.51, 25.3333, 16.6667,0, 15.3333, 16.6667, -7.20867e-09, 5.33333, 16.6667, -5.93783e-09, -4.66667, 16.6667, -4.56047e-09, 10, 16.6667, -7.20867e-09, -1.78739e-08, 10, 16.6667, -5.93783e-09, 6.75599e-09, 10, 16.6667, -4.56047e-09, -2.47876e-08, 3.26735e-17, 3.44464e-19, 2.77385e-17, 4.89772e-16, 5.50528e-16,0.00178274
1.52, 25.5, 16.6667,0, 15.5, 16.6667, -7.5046e-09, 5.5, 16.6667, -5.53723e-09, -4.5, 16.6667, -5.15208e-09, 10, 16.6667, -7.5046e-09, -1.89818e-08, 10, 16.6667, -5.53723e-09, 1.82214e-09, 10, 16.6667, -5.15208e-09, -2.4178e-08, 3.26182e-17, 4.02291e-19, 3.01689e-17, 4.74103e-16, 5.37293e-16,0.00152802
1.53, 25.6667, 16.6667,0, 15.6667, 16.6667, -7.8239e-09, 5.66667, 16.6667, -5.29799e-09, -4.33333, 16.6667, -5.70569e-09, 10, 16.6667, -7.8239e-09, -1.50456e-08, 10, 16.6667, -5.29799e-09, 1.6453e-08, 10, 16.6667, -5.70569e-09, -1.34199e-08, 3.2557e-17, 4.65648e-19, 3.38799e-17, 3.38582e-16, 4.05485e-16,0.00196981
1.54, 25.8333, 16.6667,0, 15.8333, 16.6667, -8.01447e-09, 5.83333, 16.6667, -4.6278e-09, -4.16667, 16.6667, -5.9181e-09, 10, 16.6667, -8.01447e-09, -6.01022e-09, 10, 16.6667, -4.6278e-09, 4.48881e-09, 10, 16.6667, -5.9181e-09, -1.17348e-08, 3.24895e-17, 5.36099e-19, 3.86831e-17, 9.6989e-17, 1.68698e-16,0.000757872
1.55, 26, 16.6667,0, 16, 16.6667, -7.92763e-09, 6, 16.6667, -4.33887e-09, -4, 16.6667, -6.07287e-09, 10, 16.6667, -7.92763e-09, -4.62579e-09, 10, 16.6667, -4.33887e-09, 6.13462e-10, 10, 16.6667, -6.07287e-09, -4.96705e-09, 3.24154e-17, 6.1454e-19, 3.93666e-17, 2.3223e-17, 9.56194e-17,0.000416386
1.56, 26.1667, 16.6667,0, 16.1667, 16.6667, -7.80215e-09, 6.16667, 16.6667, -4.17584e-09, -3.83333, 16.6667, -6.01945e-09, 10, 16.6667, -7.80215e-09, -3.64438e-09, 10, 16.6667, -4.17584e-09, -4.90418e-09, 10, 16.6667, -6.01945e-09, -3.3629e-09, 3.23346e-17, 6.98808e-19, 3.87113e-17, 2.43208e-17, 9.60655e-17,0.000153637
1.57, 26.3333, 16.6667,0, 16.3333, 16.6667, -7.65141e-09, 6.33333, 16.6667, -4.18377e-09, -3.66667, 16.6667, -5.91969e-09, 10, 16.6667, -7.65141e-09, -2.37379e-09, 10, 16.6667, -4.18377e-09, -9.90254e-09, 10, 16.6667, -5.91969e-09, -2.44935e-09, 3.22473e-17, 7.8931e-19, 3.6791e-17, 5.48472e-17, 1.24675e-16,0.000648988
1.58, 26.5, 16.6667,0, 16.5, 16.6667, -7.46757e-09, 6.5, 16.6667, -4.34139e-09, -3.5, 16.6667, -5.79585e-09, 10, 16.6667, -7.46757e-09, 1.28725e-10, 10, 16.6667, -4.34139e-09, -1.06873e-08, 10, 16.6667, -5.79585e-09, -1.04386e-08, 3.21536e-17, 8.85415e-19, 3.38266e-17, 1.116e-16, 1.78466e-16,0.000436053
1.59, 26.6667, 16.6667,0, 16.6667, 16.6667, -7.21479e-09, 6.66667, 16.6667, -4.5173e-09, -3.33333, 16.6667, -5.91581e-09, 10, 16.6667, -7.21479e-09, 4.19135e-09, 10, 16.6667, -4.5173e-09, -9.14286e-09, 10, 16.6667, -5.91581e-09, -1.28968e-08, 3.20536e-17, 9.85807e-19, 3.06428e-17, 1.33743e-16, 1.97425e-16,0.00082872
1.6, 26.8333, 16.6667,0, 16.8333, 16.6667, -6.84856e-09, 6.83333, 16.6667, -4.64101e-09, -3.16667, 16.6667, -6.10552e-09, 10, 16.6667, -6.84856e-09, 1.67431e-08, 10, 16.6667, -4.64101e-09, -2.38443e-09, 10, 16.6667, -6.10552e-09, -3.64669e-09, 3.19477e-17, 1.0874e-18, 2.69604e-17, 1.49658e-16, 2.09653e-16,0.00140046
1.61, 27, 16.6667,0, 17, 16.6667, -6.11798e-09, 7, 16.6667, -4.55784e-09, -3, 16.6667, -6.01141e-09, 10, 16.6667, -6.11798e-09, 1.14742e-08, 10, 16.6667, -4.55784e-09, -1.46511e-09, 10, 16.6667, -6.01141e-09, -8.5456e-09, 3.18361e-17, 1.18692e-18, 2.09883e-17, 1.03415e-16, 1.57427e-16,0.000793814
1.62, 27.1667, 16.6667,0, 17.1667, 16.6667, -5.56982e-09, 7.16667, 16.6667, -4.44986e-09, -2.83333, 16.6667, -6.06739e-09, 10, 16.6667, -5.56982e-09, 6.77823e-09, 10, 16.6667, -4.44986e-09, 6.23085e-10, 10, 16.6667, -6.06739e-09, -2.75652e-09, 3.17194e-17, 1.27737e-18, 1.74468e-17, 2.69655e-17, 7.74091e-17,0.000365707
1.63, 27.3333, 16.6667,0, 17.3333, 16.6667, -5.18082e-09, 7.33333, 16.6667, -4.28284e-09, -2.66667, 16.6667, -5.94784e-09, 10, 16.6667, -5.18082e-09, 3.08178e-08, 10, 16.6667, -4.28284e-09, -2.1001e-09, 10, 16.6667, -5.94784e-09, -3.12045e-09, 3.15981e-17, 1.36054e-18, 1.52097e-17, 4.81941e-16, 5.3011e-16,0.00183729
1.64, 27.5, 16.6667,0, 17.5, 16.6667, -4.08359e-09, 7.5, 16.6667, -4.20308e-09, -2.5, 16.6667, -5.84319e-09, 10, 16.6667, -4.08359e-09, 2.32171e-08, 10, 16.6667, -4.20308e-09, -5.51229e-09, 10, 16.6667, -5.84319e-09, -3.14429e-09, 3.14728e-17, 1.43963e-18, 9.68997e-18, 2.89652e-16, 3.32254e-16,0.00164697
1.65, 27.6667, 16.6667,0, 17.6667, 16.6667, -3.25096e-09, 7.66667, 16.6667, -4.22835e-09, -2.33333, 16.6667, -5.74275e-09, 10, 16.6667, -3.25096e-09, 1.3799e-08, 10, 16.6667, -4.22835e-09, -1.78591e-08, 10, 16.6667, -5.74275e-09, -8.96049e-09, 3.1344e-17, 1.49793e-18, 6.90871e-18, 2.94824e-16, 3.34575e-16,0.00142866
1.66, 27.8333, 16.6667,0, 17.8333, 16.6667, -2.72862e-09, 7.83333, 16.6667, -4.62318e-09, -2.16667, 16.6667, -5.82014e-09, 10, 16.6667, -2.72862e-09, 1.58308e-08, 10, 16.6667, -4.62318e-09, -9.39562e-09, 10, 16.6667, -5.82014e-09, -3.47446e-08, 3.12126e-17, 1.53965e-18, 6.23372e-18, 7.73042e-16, 8.12028e-16,0.00146156
1.67, 28, 16.6667,0, 18, 16.6667, -2.16274e-09, 8, 16.6667, -4.75094e-09, -2, 16.6667, -6.66847e-09, 10, 16.6667, -2.16274e-09, 1.88673e-08, 10, 16.6667, -4.75094e-09, -9.04077e-09, 10, 16.6667, -6.66847e-09, -3.00632e-08, 3.10793e-17, 1.56942e-18, 7.52658e-18, 6.70754e-16, 7.1093e-16,0.00156349
1.68, 28.1667, 16.6667,0, 18.1667, 16.6667, -1.52463e-09, 8.16667, 16.6667, -4.8638e-09, -1.83333, 16.6667, -7.34809e-09, 10, 16.6667, -1.52463e-09, 1.60468e-08, 10, 16.6667, -4.8638e-09, -1.3372e-08, 10, 16.6667, -7.34809e-09, -2.23106e-08, 3.09447e-17, 1.58519e-18, 9.82311e-18, 4.67035e-16, 5.09388e-16,0.00146371
1.69, 28.3333, 16.6667,0, 18.3333, 16.6667, -9.9241e-10, 8.33333, 16.6667, -5.10283e-09, -1.66667, 16.6667, -7.77247e-09, 10, 16.6667, -9.9241e-10, 1.00843e-08, 10, 16.6667, -5.10283e-09, -1.84536e-08, 10, 16.6667, -7.77247e-09, -1.19014e-08, 3.08091e-17, 1.58637e-18, 1.25037e-17, 2.91936e-16, 3.36835e-16,0.00142538
1.7, 28.5, 16.6667,0, 18.5, 16.6667, -6.56801e-10, 8.5, 16.6667, -5.48635e-09, -1.5, 16.6667, -7.87043e-09, 10, 16.6667, -6.56801e-10, 1.10356e-08, 10, 16.6667, -5.48635e-09, -1.20699e-09, 10, 16.6667, -7.87043e-09, 1.23621e-08, 3.06732e-17, 1.57624e-18, 1.47199e-17, 1.38032e-16, 1.85001e-16,0.00149337
1.71, 28.6667, 16.6667,0, 18.6667, 16.6667, -3.03838e-10, 8.66667, 16.6667, -5.33968e-09, -1.33333, 16.6667, -7.23722e-09, 10, 16.6667, -3.03838e-10, 1.28713e-08, 10, 16.6667, -5.33968e-09, 2.48051e-09, 10, 16.6667, -7.23722e-09, -6.15024e-09, 3.05373e-17, 1.56011e-18, 1.45263e-17, 1.04824e-16, 1.51448e-16,0.00137114
1.72, 28.8333, 16.6667,0, 18.8333, 16.6667, 9.24287e-11, 8.83333, 16.6667, -5.08727e-09, -1.16667, 16.6667, -7.18049e-09, 10, 16.6667, 9.24287e-11, 1.4147e-08, 10, 16.6667, -5.08727e-09, 1.69594e-08, 10, 16.6667, -7.18049e-09, -1.03051e-08, 3.04019e-17, 1.5408e-18, 1.56097e-17, 2.96977e-16, 3.44529e-16,0.00106767
1.73, 29, 16.6667,0, 19, 16.6667, 5.13757e-10, 9, 16.6667, -4.40891e-09, -1, 16.6667, -7.25029e-09, 10, 16.6667, 5.13757e-10, 4.09905e-10, 10, 16.6667, -4.40891e-09, 3.51605e-08, 10, 16.6667, -7.25029e-09, 4.4715e-10, 3.02671e-17, 1.51689e-18, 1.6285e-17, 6.18314e-16, 6.66383e-16,0.00179021
1.74, 29.1667, 16.6667,0, 19.1667, 16.6667, 5.08929e-10, 9.16667, 16.6667, -3.20714e-09, -0.833333, 16.6667, -6.9952e-09, 10, 16.6667, 5.08929e-10, 3.76597e-08, 10, 16.6667, -3.20714e-09, 1.81956e-08, 10, 16.6667, -6.9952e-09, 8.13819e-09, 3.01333e-17, 1.48893e-18, 1.42088e-17, 9.07779e-16, 9.5361e-16,0.00194473
1.75, 29.3333, 16.6667,0, 19.3333, 16.6667, 1.62175e-09, 9.33333, 16.6667, -2.55437e-09, -0.666667, 16.6667, -6.51788e-09, 10, 16.6667, 1.62175e-09, 3.69331e-08, 10, 16.6667, -2.55437e-09, 2.54378e-08, 10, 16.6667, -6.51788e-09, 1.13227e-08, 3.00006e-17, 1.46677e-18, 1.78898e-17, 1.06967e-15, 1.11903e-15,0.00186467
1.76, 29.5, 16.6667,0, 19.5, 16.6667, 2.67569e-09, 9.5, 16.6667, -1.70608e-09, -0.5, 16.6667, -5.96094e-09, 10, 16.6667, 2.67569e-09, 2.35614e-08, 10, 16.6667, -1.70608e-09, 4.34148e-09, 10, 16.6667, -5.96094e-09, 6.44176e-09, 2.98692e-17, 1.42767e-18, 2.22315e-17, 3.07742e-16, 3.61271e-16,0.00176894
1.77, 29.6667, 16.6667,0, 19.6667, 16.6667, 3.29334e-09, 9.66667, 16.6667, -1.51897e-09, -0.333333, 16.6667, -5.56899e-09, 10, 16.6667, 3.29334e-09, 7.64765e-09, 10, 16.6667, -1.51897e-09, -1.63848e-09, 10, 16.6667, -5.56899e-09, -7.9654e-09, 2.97401e-17, 1.37442e-18, 2.52035e-17, 6.23094e-17, 1.18627e-16,0.000962283
1.78, 29.8333, 16.6667,0, 19.8333, 16.6667, 3.41299e-09, 9.83333, 16.6667, -1.51749e-09, -0.166667, 16.6667, -5.62232e-09, 10, 16.6667, 3.41299e-09, -9.29788e-09, 10, 16.6667, -1.51749e-09, 1.85346e-08, 10, 16.6667, -5.62232e-09, -5.12798e-09, 2.96138e-17, 1.31492e-18, 2.64039e-17, 2.2814e-16, 2.85473e-16,0.00128258
1.79, 30, 16.6667,0, 20, 16.6667, 3.02029e-09, 10, 16.6667, -9.1087e-10, 6.89376e-09, 16.6667, -5.58874e-09, 10, 16.6667, 3.02029e-09, -3.30377e-09, 10, 16.6667, -9.1087e-10, 3.22108e-08, 10, 16.6667, -5.58874e-09, 7.79618e-09, 2.94908e-17, 1.25853e-18, 2.32293e-17, 5.54614e-16, 6.08593e-16,0.00153143
1.8, 30.1667, 16.6667,0, 20.1667, 16.6667, 2.8205e-09, 10.1667, 16.6667, 8.5815e-11, 0.166667, 16.6667, -5.16857e-09, 10, 16.6667, 2.8205e-09, 2.11693e-09, 10, 16.6667, 8.5815e-11, 1.25637e-08, 10, 16.6667, -5.16857e-09, 2.56882e-09, 2.93708e-17, 1.2147e-18, 2.15211e-17, 8.44632e-17, 1.3657e-16,0.000547683
1.81, 30.3333, 16.6667,0, 20.3333, 16.6667, 2.78999e-09, 10.3333, 16.6667, 4.59865e-10, 0.333333, 16.6667, -4.91922e-09, 10, 16.6667, 2.78999e-09, 7.93671e-09, 10, 16.6667, 4.59865e-10, 8.52151e-09, 10, 16.6667, -4.91922e-09, -1.88971e-08, 2.92534e-17, 1.17977e-18, 2.1074e-17, 2.46353e-16, 2.97861e-16,0.0011226
1.82, 30.5, 16.6667,0, 20.5, 16.6667, 2.93509e-09, 10.5, 16.6667, 7.00182e-10, 0.5, 16.6667, -5.32216e-09, 10, 16.6667, 2.93509e-09, -3.3755e-10, 10, 16.6667, 7.00182e-10, 4.08417e-08, 10, 16.6667, -5.32216e-09, -1.21027e-08, 2.91385e-17, 1.14987e-18, 2.49391e-17, 9.07315e-16, 9.62543e-16,0.00259179
1.83, 30.6667, 16.6667,0, 20.6667, 16.6667, 2.82713e-09, 10.6667, 16.6667, 1.90209e-09, 0.666667, 16.6667, -5.50783e-09, 10, 16.6667, 2.82713e-09, 1.8172e-09, 10, 16.6667, 1.90209e-09, 3.51817e-08, 10, 16.6667, -5.50783e-09, -6.39797e-09, 2.90261e-17, 1.12402e-18, 3.18777e-17, 6.40993e-16, 7.03021e-16,0.00208788
1.84, 30.8333, 16.6667,0, 20.8333, 16.6667, 2.78741e-09, 10.8333, 16.6667, 2.89414e-09, 0.833333, 16.6667, -5.51618e-09, 10, 16.6667, 2.78741e-09, 5.09506e-09, 10, 16.6667, 2.89414e-09, 2.65036e-08, 10, 16.6667, -5.51618e-09, 4.18431e-09, 2.8916e-17, 1.10937e-18, 3.92572e-17, 3.72954e-16, 4.42237e-16,0.00136384
1.85, 31, 16.6667,0, 21, 16.6667, 2.84735e-09, 11, 16.6667, 3.59278e-09, 1, 16.6667, -5.20677e-09, 10, 16.6667, 2.84735e-09, -1.18981e-09, 10, 16.6667, 3.59278e-09, 2.12502e-08, 10, 16.6667, -5.20677e-09, 5.72128e-09, 2.88081e-17, 1.10587e-18, 4.30476e-17, 2.42859e-16, 3.1582e-16,0.00128643
1.86, 31.1667, 16.6667,0, 21.1667, 16.6667, 2.71674e-09, 11.1667, 16.6667, 4.11052e-09, 1.16667, 16.6667, -4.86158e-09, 10, 16.6667, 2.71674e-09, 7.47255e-09, 10, 16.6667, 4.11052e-09, 1.08372e-08, 10, 16.6667, -4.86158e-09, 4.39894e-09, 2.87023e-17, 1.11132e-18, 4.49109e-17, 9.63171e-17, 1.71042e-16,0.000716395
1.87, 31.3333, 16.6667,0, 21.3333, 16.6667, 2.85036e-09, 11.3333, 16.6667, 4.29862e-09, 1.33333, 16.6667, -4.56756e-09, 10, 16.6667, 2.85036e-09, 2.39649e-09, 10, 16.6667, 4.29862e-09, -1.13071e-09, 10, 16.6667, -4.56756e-09, -1.6993e-08, 2.85984e-17, 1.12813e-18, 4.44155e-17, 1.47892e-16, 2.22034e-16,0.00118988
1.88, 31.5, 16.6667,0, 21.5, 16.6667, 2.82724e-09, 11.5, 16.6667, 4.12141e-09, 1.5, 16.6667, -4.92509e-09, 10, 16.6667, 2.82724e-09, -8.74182e-10, 10, 16.6667, 4.12141e-09, 1.03972e-08, 10, 16.6667, -4.92509e-09, 2.60894e-09, 2.84965e-17, 1.15137e-18, 4.57537e-17, 5.78364e-17, 1.33238e-16,0.00127778
1.89, 31.6667, 16.6667,0, 21.6667, 16.6667, 2.70678e-09, 11.6667, 16.6667, 4.29595e-09, 1.66667, 16.6667, -4.68266e-09, 10, 16.6667, 2.70678e-09, 1.20363e-08, 10, 16.6667, 4.29595e-09, -4.07843e-09, 10, 16.6667, -4.68266e-09, 8.53333e-09, 2.83965e-17, 1.18527e-18, 4.52337e-17, 1.17162e-16, 1.91977e-16,0.000947953
1.9, 31.8333, 16.6667,0, 21.8333, 16.6667, 2.97764e-09, 11.8333, 16.6667, 4.0304e-09, 1.83333, 16.6667, -4.27057e-09, 10, 16.6667, 2.97764e-09, 1.63767e-08, 10, 16.6667, 4.0304e-09, 1.11887e-08, 10, 16.6667, -4.27057e-09, 8.54795e-09, 2.82985e-17, 1.22929e-18, 3.94403e-17, 2.33225e-16, 3.02193e-16,0.000827999
1.91, 32, 16.6667,0, 22, 16.6667, 3.36968e-09, 12, 16.6667, 4.23171e-09, 2, 16.6667, -3.87178e-09, 10, 16.6667, 3.36968e-09, 1.8361e-08, 10, 16.6667, 4.23171e-09, 1.37323e-09, 10, 16.6667, -3.87178e-09, -2.72269e-09, 2.82025e-17, 1.27198e-18, 3.88822e-17, 1.73212e-16, 2.41569e-16,0.000966811
1.92, 32.1667, 16.6667,0, 22.1667, 16.6667, 3.80819e-09, 12.1667, 16.6667, 4.13185e-09, 2.16667, 16.6667, -3.8244e-09, 10, 16.6667, 3.80819e-09, 5.80413e-09, 10, 16.6667, 4.13185e-09, -2.67314e-09, 10, 16.6667, -3.8244e-09, -2.56361e-09, 2.81089e-17, 1.3156e-18, 3.89545e-17, 2.37029e-17, 9.20818e-17,0.000564844
1.93, 32.3333, 16.6667,0, 22.3333, 16.6667, 3.85538e-09, 12.3333, 16.6667, 3.91393e-09, 2.33333, 16.6667, -3.77383e-09, 10, 16.6667, 3.85538e-09, 7.47072e-09, 10, 16.6667, 3.91393e-09, 5.59615e-09, 10, 16.6667, -3.77383e-09, 1.30942e-08, 2.8018e-17, 1.35988e-18, 3.69844e-17, 1.29294e-16, 1.95656e-16,0.000491056
1.94, 32.5, 16.6667,0, 22.5, 16.6667, 3.95098e-09, 12.5, 16.6667, 3.95135e-09, 2.5, 16.6667, -3.25521e-09, 10, 16.6667, 3.95098e-09, 4.24265e-09, 10, 16.6667, 3.95135e-09, -1.15375e-09, 10, 16.6667, -3.25521e-09, 1.16241e-08, 2.793e-17, 1.40796e-18, 3.37723e-17, 7.72259e-17, 1.40336e-16,0.000612972
1.95, 32.6667, 16.6667,0, 22.6667, 16.6667, 3.94656e-09, 12.6667, 16.6667, 3.78502e-09, 2.66667, 16.6667, -2.79797e-09, 10, 16.6667, 3.94656e-09, -7.77794e-09, 10, 16.6667, 3.78502e-09, 6.85687e-09, 10, 16.6667, -2.79797e-09, 6.4389e-09, 2.7845e-17, 1.45604e-18, 2.94687e-17, 7.44862e-17, 1.33256e-16,0.000507246
1.96, 32.8333, 16.6667,0, 22.8333, 16.6667, 3.58167e-09, 12.8333, 16.6667, 3.86456e-09, 2.83333, 16.6667, -2.51154e-09, 10, 16.6667, 3.58167e-09, -1.87103e-08, 10, 16.6667, 3.86456e-09, -7.43409e-09, 10, 16.6667, -2.51154e-09, 9.83926e-09, 2.77631e-17, 1.50224e-18, 2.67816e-17, 2.51077e-16, 3.07124e-16,0.000575564
1.97, 33, 16.6667,0, 23, 16.6667, 2.90097e-09, 13, 16.6667, 3.51272e-09, 3, 16.6667, -2.13265e-09, 10, 16.6667, 2.90097e-09, -5.59876e-09, 10, 16.6667, 3.51272e-09, 1.97118e-09, 10, 16.6667, -2.13265e-09, -7.90433e-09, 2.76842e-17, 1.55524e-18, 2.033e-17, 4.88551e-17, 9.84245e-17,0.000652844
1.98, 33.1667, 16.6667,0, 23.1667, 16.6667, 2.63631e-09, 13.1667, 16.6667, 3.45476e-09, 3.16667, 16.6667, -2.29869e-09, 10, 16.6667, 2.63631e-09, -2.49819e-08, 10, 16.6667, 3.45476e-09, 2.0443e-09, 10, 16.6667, -2.29869e-09, 2.39728e-08, 2.76078e-17, 1.60949e-18, 2.03611e-17, 6.01484e-16, 6.51062e-16,0.00113421
1.99, 33.3333, 16.6667,0, 23.3333, 16.6667, 1.79898e-09, 13.3333, 16.6667, 3.40093e-09, 3.33333, 16.6667, -1.50288e-09, 10, 16.6667, 1.79898e-09, -6.91272e-09, 10, 16.6667, 3.40093e-09, -2.07565e-08, 10, 16.6667, -1.50288e-09, -1.78121e-09, 2.75337e-17, 1.67215e-18, 1.4925e-17, 2.40896e-16, 2.85027e-16,0.000535339
2, 33.5, 16.6667,0, 23.5, 16.6667, 1.53163e-09, 13.5, 16.6667, 2.66487e-09, 3.5, 16.6667, -1.50622e-09, 10, 16.6667, 1.53163e-09, -8.52837e-09, 10, 16.6667, 2.66487e-09, 1.22886e-08, 10, 16.6667, -1.50622e-09, -3.5383e-09, 2.74613e-17, 1.73365e-18, 1.05141e-17, 1.18131e-16, 1.5784e-16,0.00125323
2.01, 33.6667, 16.6667,0, 23.6667, 16.6667, 1.22473e-09, 13.6667, 16.6667, 2.9447e-09, 3.66667, 16.6667, -1.56216e-09, 10, 16.6667, 1.22473e-09, -2.29691e-09, 10, 16.6667, 2.9447e-09, -1.20974e-08, 10, 16.6667, -1.56216e-09, -8.78931e-09, 2.73903e-17, 1.78809e-18, 1.23851e-17, 1.14438e-16, 1.56002e-16,0.000270084
2.02, 33.8333, 16.6667,0, 23.8333, 16.6667, 1.11499e-09, 13.8333, 16.6667, 2.48362e-09, 3.83333, 16.6667, -1.77377e-09, 10, 16.6667, 1.11499e-09, -6.41058e-09, 10, 16.6667, 2.48362e-09, 1.1701e-08, 10, 16.6667, -1.77377e-09, 7.28941e-09, 2.73205e-17, 1.85372e-18, 1.06209e-17, 1.15572e-16, 1.55367e-16,0.000953483
2.03, 34, 16.6667,0, 24, 16.6667, 8.85511e-10, 14, 16.6667, 2.75186e-09, 4, 16.6667, -1.49596e-09, 10, 16.6667, 8.85511e-10, -8.334e-09, 10, 16.6667, 2.75186e-09, -1.83251e-09, 10, 16.6667, -1.49596e-09, -4.63017e-09, 2.72517e-17, 1.91806e-18, 1.11557e-17, 4.71261e-17, 8.74516e-17,0.000718363
2.04, 34.1667, 16.6667,0, 24.1667, 16.6667, 6.05974e-10, 14.1667, 16.6667, 2.60516e-09, 4.16667, 16.6667, -1.585e-09, 10, 16.6667, 6.05974e-10, -1.1739e-08, 10, 16.6667, 2.60516e-09, -1.49789e-08, 10, 16.6667, -1.585e-09, -2.69971e-09, 2.71839e-17, 1.98709e-18, 1.09607e-17, 1.8473e-16, 2.24862e-16,0.000418182
2.05, 34.3333, 16.6667,0, 24.3333, 16.6667, 2.33605e-10, 14.3333, 16.6667, 2.06895e-09, 4.33333, 16.6667, -1.61316e-09, 10, 16.6667, 2.33605e-10, -1.53139e-08, 10, 16.6667, 2.06895e-09, -5.88804e-09, 10, 16.6667, -1.61316e-09, -1.60411e-09, 2.71168e-17, 2.05998e-18, 8.49052e-18, 1.35879e-16, 1.73546e-16,0.000243714
2.06, 34.5, 16.6667,0, 24.5, 16.6667, -2.33598e-10, 14.5, 16.6667, 1.82335e-09, 4.5, 16.6667, -1.60751e-09, 10, 16.6667, -2.33598e-10, -1.08515e-08, 10, 16.6667, 1.82335e-09, 3.14106e-09, 10, 16.6667, -1.60751e-09, 7.32288e-10, 2.70502e-17, 2.12863e-18, 8.0282e-18, 6.40793e-17, 1.01286e-16,0.000732836
2.07, 34.6667, 16.6667,0, 24.6667, 16.6667, -5.51358e-10, 14.6667, 16.6667, 1.8568e-09, 4.66667, 16.6667, -1.53196e-09, 10, 16.6667, -5.51358e-10, -2.45858e-08, 10, 16.6667, 1.8568e-09, 5.5161e-09, 10, 16.6667, -1.53196e-09, 3.80161e-09, 2.69839e-17, 2.1988e-18, 8.79346e-18, 3.24671e-16, 3.62647e-16,0.00153728
2.08, 34.8333, 16.6667,0, 24.8333, 16.6667, -1.27055e-09, 14.8333, 16.6667, 1.96039e-09, 4.83333, 16.6667, -1.36685e-09, 10, 16.6667, -1.27055e-09, -1.95752e-08, 10, 16.6667, 1.96039e-09, -1.87121e-08, 10, 16.6667, -1.36685e-09, -1.14088e-08, 2.69175e-17, 2.27337e-18, 1.15619e-17, 4.31746e-16, 4.72499e-16,0.000376575
2.09, 35, 16.6667,0, 25, 16.6667, -1.81546e-09, 15, 16.6667, 1.33368e-09, 5, 16.6667, -1.66355e-09, 10, 16.6667, -1.81546e-09, -1.31703e-08, 10, 16.6667, 1.33368e-09, -6.43844e-09, 10, 16.6667, -1.66355e-09, -7.5123e-11, 2.68506e-17, 2.35705e-18, 1.10982e-17, 1.07458e-16, 1.47764e-16,0.000339091
2.1, 35.1667, 16.6667,0, 25.1667, 16.6667, -2.15005e-09, 15.1667, 16.6667, 1.09607e-09, 5.16667, 16.6667, -1.61035e-09, 10, 16.6667, -2.15005e-09, -6.44672e-09, 10, 16.6667, 1.09607e-09, -2.43302e-08, 10, 16.6667, -1.61035e-09, -1.50201e-08, 2.67827e-17, 2.44127e-18, 1.12424e-17, 4.29562e-16, 4.70028e-16,0.000698746
2.11, 35.3333, 16.6667,0, 25.3333, 16.6667, -2.27178e-09, 15.3333, 16.6667, 3.29631e-10, 5.33333, 16.6667, -2.00728e-09, 10, 16.6667, -2.27178e-09, -1.04162e-08, 10, 16.6667, 3.29631e-10, -2.65784e-08, 10, 16.6667, -2.00728e-09, -1.29633e-08, 2.67136e-17, 2.52532e-18, 8.69475e-18, 4.91479e-16, 5.29413e-16,0.000584375
2.12, 35.5, 16.6667,0, 25.5, 16.6667, -2.50855e-09, 15.5, 16.6667, -4.7871e-10, 5.5, 16.6667, -2.32927e-09, 10, 16.6667, -2.50855e-09, -1.05726e-08, 10, 16.6667, -4.7871e-10, -6.13759e-09, 10, 16.6667, -2.32927e-09, -7.02041e-11, 2.66432e-17, 2.60302e-18, 6.91879e-18, 7.47279e-17, 1.10893e-16,0.000182605
2.13, 35.6667, 16.6667,0, 25.6667, 16.6667, -2.74211e-09, 15.6667, 16.6667, -6.46881e-10, 5.66667, 16.6667, -2.25373e-09, 10, 16.6667, -2.74211e-09, -3.69944e-09, 10, 16.6667, -6.46881e-10, -8.77626e-09, 10, 16.6667, -2.25373e-09, -1.22335e-09, 2.65714e-17, 2.6727e-18, 7.24554e-18, 4.61026e-17, 8.25922e-17,0.000311275
2.14, 35.8333, 16.6667,0, 25.8333, 16.6667, -2.76169e-09, 15.8333, 16.6667, -8.88606e-10, 5.83333, 16.6667, -2.21531e-09, 10, 16.6667, -2.76169e-09, 1.15644e-09, 10, 16.6667, -8.88606e-10, -8.52118e-09, 10, 16.6667, -2.21531e-09, -2.35855e-09, 2.6498e-17, 2.74135e-18, 6.44773e-18, 3.97553e-17, 7.54424e-17,0.000643266
2.15, 36, 16.6667,0, 26, 16.6667, -2.63494e-09, 16, 16.6667, -1.11462e-09, 6, 16.6667, -2.21222e-09, 10, 16.6667, -2.63494e-09, 4.37384e-09, 10, 16.6667, -1.11462e-09, -4.61649e-09, 10, 16.6667, -2.21222e-09, 4.14938e-09, 2.6423e-17, 2.80491e-18, 5.22948e-18, 2.88299e-17, 6.32873e-17,0.000377627
2.16, 36.1667, 16.6667,0, 26.1667, 16.6667, -2.41589e-09, 16.1667, 16.6667, -1.21596e-09, 6.16667, 16.6667, -2.014e-09, 10, 16.6667, -2.41589e-09, 7.88497e-10, 10, 16.6667, -1.21596e-09, -9.03121e-09, 10, 16.6667, -2.014e-09, -3.17902e-09, 2.63465e-17, 2.8621e-18, 3.95661e-18, 4.61453e-17, 7.93105e-17,0.000452762
2.17, 36.3333, 16.6667,0, 26.3333, 16.6667, -2.31171e-09, 16.3333, 16.6667, -1.44637e-09, 6.33333, 16.6667, -2.04223e-09, 10, 16.6667, -2.31171e-09, -6.83212e-09, 10, 16.6667, -1.44637e-09, -3.35842e-09, 10, 16.6667, -2.04223e-09, 1.92756e-09, 2.62686e-17, 2.91023e-18, 3.22393e-18, 3.08361e-17, 6.32389e-17,7.55823e-05
2.18, 36.5, 16.6667,0, 26.5, 16.6667, -2.43961e-09, 16.5, 16.6667, -1.49891e-09, 6.5, 16.6667, -1.91633e-09, 10, 16.6667, -2.43961e-09, -4.93402e-09, 10, 16.6667, -1.49891e-09, -8.55176e-09, 10, 16.6667, -1.91633e-09, 5.82783e-09, 2.61895e-17, 2.95224e-18, 3.50544e-18, 6.57204e-17, 9.83676e-17,0.000454849
2.19, 36.6667, 16.6667,0, 26.6667, 16.6667, -2.50631e-09, 16.6667, 16.6667, -1.7055e-09, 6.66667, 16.6667, -1.67762e-09, 10, 16.6667, -2.50631e-09, -5.77196e-09, 10, 16.6667, -1.7055e-09, 7.19693e-09, 10, 16.6667, -1.67762e-09, 3.86388e-09, 2.61093e-17, 2.99292e-18, 3.46184e-18, 5.00205e-17, 8.25845e-17,0.0006891
2.2, 36.8333, 16.6667,0, 26.8333, 16.6667, -2.59593e-09, 16.8333, 16.6667, -1.43274e-09, 6.83333, 16.6667, -1.50578e-09, 10, 16.6667, -2.59593e-09, -6.86187e-09, 10, 16.6667, -1.43274e-09, 6.8049e-09, 10, 16.6667, -1.50578e-09, 2.10458e-08, 2.60278e-17, 3.02502e-18, 4.04859e-18, 2.68159e-16, 3.01261e-16,0.000412975
2.21, 37, 16.6667,0, 27, 16.6667, -2.71525e-09, 17, 16.6667, -1.18083e-09, 7, 16.6667, -8.24215e-10, 10, 16.6667, -2.71525e-09, -7.44862e-09, 10, 16.6667, -1.18083e-09, -9.42426e-10, 10, 16.6667, -8.24215e-10, 1.23572e-08, 2.5945e-17, 3.06272e-18, 4.92711e-18, 1.04536e-16, 1.38471e-16,0.000227843
2.22, 37.1667, 16.6667,0, 27.1667, 16.6667, -2.8482e-09, 17.1667, 16.6667, -1.16974e-09, 7.16667, 16.6667, -4.26024e-10, 10, 16.6667, -2.8482e-09, 1.16329e-08, 10, 16.6667, -1.16974e-09, -6.97723e-09, 10, 16.6667, -4.26024e-10, 9.90708e-09, 2.58607e-17, 3.0954e-18, 5.7413e-18, 1.41079e-16, 1.75776e-16,0.00113126
2.23, 37.3333, 16.6667,0, 27.3333, 16.6667, -2.40427e-09, 17.3333, 16.6667, -1.34007e-09, 7.33333, 16.6667, -1.14611e-10, 10, 16.6667, -2.40427e-09, 1.92306e-08, 10, 16.6667, -1.34007e-09, -9.75635e-09, 10, 16.6667, -1.14611e-10, 5.89616e-09, 2.5775e-17, 3.12329e-18, 4.20741e-18, 2.49884e-16, 2.82989e-16,0.00169516
2.24, 37.5, 16.6667,0, 27.5, 16.6667, -1.74721e-09, 17.5, 16.6667, -1.58809e-09, 7.5, 16.6667, 6.60942e-11, 10, 16.6667, -1.74721e-09, 3.91892e-10, 10, 16.6667, -1.58809e-09, -2.39584e-09, 10, 16.6667, 6.60942e-11, 4.70902e-09, 2.56878e-17, 3.13342e-18, 2.9072e-18, 1.40342e-17, 4.57627e-17,0.00042743
2.25, 37.6667, 16.6667,0, 27.6667, 16.6667, -1.67722e-09, 17.6667, 16.6667, -1.60703e-09, 7.66667, 16.6667, 2.05162e-10, 10, 16.6667, -1.67722e-09, 1.9044e-08, 10, 16.6667, -1.60703e-09, 2.93887e-09, 10, 16.6667, 2.05162e-10, 3.57142e-09, 2.55997e-17, 3.12226e-18, 3.05101e-18, 1.92032e-16, 2.23805e-16,0.00103537
2.26, 37.8333, 16.6667,0, 27.8333, 16.6667, -1.04999e-09, 17.8333, 16.6667, -1.4653e-09, 7.83333, 16.6667, 3.05465e-10, 10, 16.6667, -1.04999e-09, 1.58308e-08, 10, 16.6667, -1.4653e-09, 3.26625e-09, 10, 16.6667, 3.05465e-10, -3.33355e-09, 2.55109e-17, 3.10706e-18, 2.20528e-18, 1.36198e-16, 1.67021e-16,0.000943735
2.27, 38, 16.6667,0, 28, 16.6667, -5.40066e-10, 18, 16.6667, -1.31847e-09, 8, 16.6667, 1.95277e-10, 10, 16.6667, -5.40066e-10, 2.44469e-08, 10, 16.6667, -1.31847e-09, -8.45991e-10, 10, 16.6667, 1.95277e-10, -1.07128e-08, 2.54217e-17, 3.0825e-18, 1.5945e-18, 3.56565e-16, 3.86663e-16,0.00148919
2.28, 38.1667, 16.6667,0, 28.1667, 16.6667, 2.11343e-10, 18.1667, 16.6667, -1.2999e-09, 8.16667, 16.6667, -1.32616e-10, 10, 16.6667, 2.11343e-10, 6.37252e-11, 10, 16.6667, -1.2999e-09, -1.19726e-08, 10, 16.6667, -1.32616e-10, 5.30494e-09, 2.53326e-17, 3.05497e-18, 1.84553e-18, 8.57445e-17, 1.15978e-16,0.000844991
2.29, 38.3333, 16.6667,0, 28.3333, 16.6667, 2.0621e-10, 18.3333, 16.6667, -1.61574e-09, 8.33333, 16.6667, 3.09525e-11, 10, 16.6667, 2.0621e-10, 3.94779e-08, 10, 16.6667, -1.61574e-09, -1.25755e-08, 10, 16.6667, 3.09525e-11, 1.8098e-08, 2.5244e-17, 3.02112e-18, 3.03682e-18, 1.02209e-15, 1.05339e-15,0.00331909
2.3, 38.5, 16.6667,0, 28.5, 16.6667, 1.38367e-09, 18.5, 16.6667, -1.93915e-09, 8.5, 16.6667, 5.72862e-10, 10, 16.6667, 1.38367e-09, 1.9921e-08, 10, 16.6667, -1.93915e-09, 8.14991e-09, 10, 16.6667, 5.72862e-10, 3.01075e-08, 2.51562e-17, 2.97669e-18, 9.63295e-18, 6.84865e-16, 7.2263e-16,0.00133363
2.31, 38.6667, 16.6667,0, 28.6667, 16.6667, 1.93518e-09, 18.6667, 16.6667, -1.63001e-09, 8.66667, 16.6667, 1.45699e-09, 10, 16.6667, 1.93518e-09, 2.01546e-08, 10, 16.6667, -1.63001e-09, 2.55654e-09, 10, 16.6667, 1.45699e-09, 1.88659e-08, 2.50697e-17, 2.89363e-18, 1.29926e-17, 3.84333e-16, 4.25289e-16,0.0013307
2.32, 38.8333, 16.6667,0, 28.8333, 16.6667, 2.47531e-09, 18.8333, 16.6667, -1.49898e-09, 8.83333, 16.6667, 1.9744e-09, 10, 16.6667, 2.47531e-09, 1.98786e-08, 10, 16.6667, -1.49898e-09, -4.93781e-09, 10, 16.6667, 1.9744e-09, 2.60037e-09, 2.49851e-17, 2.79322e-18, 1.69933e-17, 2.13152e-16, 2.57924e-16,0.00142114
2.33, 39, 16.6667,0, 29, 16.6667, 2.98916e-09, 19, 16.6667, -1.59715e-09, 9, 16.6667, 1.9866e-09, 10, 16.6667, 2.98916e-09, 1.0819e-08, 10, 16.6667, -1.59715e-09, -3.28945e-09, 10, 16.6667, 1.9866e-09, -1.19934e-08, 2.49027e-17, 2.67971e-18, 2.14063e-17, 1.35856e-16, 1.84845e-16,0.000928428
2.34, 39.1667, 16.6667,0, 29.1667, 16.6667, 3.21409e-09, 19.1667, 16.6667, -1.6426e-09, 9.16667, 16.6667, 1.56058e-09, 10, 16.6667, 3.21409e-09, 5.69322e-09, 10, 16.6667, -1.6426e-09, -4.16115e-09, 10, 16.6667, 1.56058e-09, -5.12778e-09, 2.4823e-17, 2.55922e-18, 2.20891e-17, 3.8011e-17, 8.74823e-17,0.000720207
2.35, 39.3333, 16.6667,0, 29.3333, 16.6667, 3.27775e-09, 19.3333, 16.6667, -1.71268e-09, 9.33333, 16.6667, 1.35473e-09, 10, 16.6667, 3.27775e-09, -5.06998e-09, 10, 16.6667, -1.71268e-09, -1.35523e-09, 10, 16.6667, 1.35473e-09, 4.54277e-09, 2.47462e-17, 2.44655e-18, 2.25285e-17, 2.4089e-17, 7.38103e-17,0.000245258
2.36, 39.5, 16.6667,0, 29.5, 16.6667, 3.0164e-09, 19.5, 16.6667, -1.69625e-09, 9.5, 16.6667, 1.44585e-09, 10, 16.6667, 3.0164e-09, -1.53875e-08, 10, 16.6667, -1.69625e-09, -5.38801e-10, 10, 16.6667, 1.44585e-09, 1.24737e-09, 2.46724e-17, 2.33973e-18, 2.05902e-17, 1.19311e-16, 1.66913e-16,0.000435382
2.37, 39.6667, 16.6667,0, 29.6667, 16.6667, 2.45422e-09, 19.6667, 16.6667, -1.65587e-09, 9.66667, 16.6667, 1.43508e-09, 10, 16.6667, 2.45422e-09, -1.42134e-08, 10, 16.6667, -1.65587e-09, -7.25612e-09, 10, 16.6667, 1.43508e-09, 3.63463e-09, 2.46015e-17, 2.23953e-18, 1.6235e-17, 1.33942e-16, 1.77018e-16,0.000354488
2.38, 39.8333, 16.6667,0, 29.8333, 16.6667, 1.94601e-09, 19.8333, 16.6667, -1.81836e-09, 9.83333, 16.6667, 1.49628e-09, 10, 16.6667, 1.94601e-09, -1.24156e-08, 10, 16.6667, -1.81836e-09, 9.88777e-09, 10, 16.6667, 1.49628e-09, -4.57087e-09, 2.45331e-17, 2.15136e-18, 1.44721e-17, 1.36404e-16, 1.7756e-16,0.00132539
2.39, 40, 16.6667,0, 30, 16.6667, 1.50868e-09, 20, 16.6667, -1.46111e-09, 10, 16.6667, 1.30928e-09, 10, 16.6667, 1.50868e-09, -1.81556e-08, 10, 16.6667, -1.46111e-09, -4.91055e-10, 10, 16.6667, 1.30928e-09, -4.90794e-09, 2.44668e-17, 2.06846e-18, 9.38541e-18, 1.76977e-16, 2.12898e-16,0.000862657
2.4, 40.1667, 16.6667,0, 30.1667, 16.6667, 9.13722e-10, 20.1667, 16.6667, -1.42714e-09, 10.1667, 16.6667, 1.1184e-09, 10, 16.6667, 9.13722e-10, -9.17469e-09, 10, 16.6667, -1.42714e-09, -1.01887e-08, 10, 16.6667, 1.1184e-09, -1.06821e-09, 2.44022e-17, 2.00278e-18, 6.39714e-18, 9.45629e-17, 1.27365e-16,0.0004573
2.41, 40.3333, 16.6667,0, 30.3333, 16.6667, 6.08024e-10, 20.3333, 16.6667, -1.68523e-09, 10.3333, 16.6667, 1.04907e-09, 10, 16.6667, 6.08024e-10, 3.6679e-10, 10, 16.6667, -1.68523e-09, -7.83771e-09, 10, 16.6667, 1.04907e-09, -2.59587e-09, 2.43389e-17, 1.94928e-18, 6.55255e-18, 3.41514e-17, 6.69921e-17,0.000647667
